svm_type c_svc
kernel_type rbf
gamma 0.1
nr_class 2
total_sv 11
rho 0.00439404
label 1 -1
nr_sv 3 8
SV
0.1539347062841159 1:0.841064 2:0.883547 3:0.872041 4:0.914569 5:0.987827 6:0.907381 7:0.927419 8:0.936697 9:0.963125 10:0.976279 
0.001264245156961736 1:0.827673 2:0.937559 3:0.895488 4:0.893997 5:0.967928 6:0.946008 7:0.94476 8:0.922915 9:0.992883 10:0.937774 
0.8961907584023721 1:0.872855 2:0.855012 3:0.895599 4:0.96435 5:0.900316 6:0.910912 7:0.919133 8:0.939251 9:0.946744 10:0.946751 
-0.3208900696860226 1:-0.958104 2:-0.746286 3:-0.755833 4:-0.786418 5:-0.861812 6:-0.843159 7:-0.839548 8:-0.851903 9:-0.900387 10:-0.90469 
-0.2809784242675596 1:-0.68224 2:-0.785688 3:-0.795877 4:-0.970199 5:-0.797983 6:-0.834744 7:-0.850987 8:-0.897956 9:-0.904164 10:-0.872858 
-0.001264245156961736 1:-0.666851 2:-0.946779 3:-0.777821 4:-0.785772 5:-0.981159 6:-0.979291 7:-0.970969 8:-0.910325 9:-0.975666 10:-0.879126 
-0.06566051619784896 1:-0.653441 2:-0.839733 3:-0.758854 4:-0.990289 5:-0.887938 6:-0.840558 7:-0.864315 8:-0.913875 9:-0.920591 10:-0.865775 
-0.1058772609639093 1:-0.721155 2:-0.732025 3:-0.983237 4:-0.791127 5:-0.819102 6:-0.998667 7:-0.890768 8:-0.845122 9:-0.89823 10:-0.873863 
-0.1893714504319422 1:-0.663784 2:-0.721889 3:-0.889448 4:-0.779909 5:-0.79769 6:-0.848732 7:-0.942012 8:-0.877012 9:-0.927645 10:-0.989028 
-0.03379901545144454 1:-0.918615 2:-0.947243 3:-0.978323 4:-0.7863 5:-0.995264 6:-0.844253 7:-0.833479 8:-0.911742 9:-0.857004 10:-0.871425 
-0.05354872768776065 1:-0.982794 2:-0.715691 3:-0.746933 4:-0.811418 5:-0.956129 6:-0.816836 7:-0.839416 8:-0.910946 9:-0.971735 10:-0.871033 
