svm_type one_class
kernel_type rbf
gamma 0.1
nr_class 2
total_sv 1001
rho 513.381
SV
1 1:0.969844 2:0.870923 3:0.966476 4:0.935474 5:0.962821 6:0.978552 7:0.979687 8:0.9414 9:0.965066 10:0.992899 
1 1:0.996307 2:0.940894 3:0.990724 4:0.981827 5:0.933469 6:0.935714 7:0.939932 8:0.933277 9:0.972417 10:0.97763 
1 1:0.987874 2:0.952425 3:0.884322 4:0.939602 5:0.898833 6:0.926172 7:0.916729 8:0.992957 9:0.977149 10:0.984564 
1 1:0.951009 2:0.949268 3:0.925236 4:0.963053 5:0.937652 6:0.985159 7:0.966176 8:0.933289 9:0.981066 10:0.994446 
1 1:0.97098 2:0.892157 3:0.876413 4:0.943499 5:0.952979 6:0.944804 7:0.987632 8:0.991579 9:0.936974 10:0.996697 
1 1:0.98572 2:0.870734 3:0.983564 4:0.887491 5:0.976204 6:0.999068 7:0.953365 8:0.935561 9:0.979599 10:0.956169 
1 1:0.905383 2:0.961172 3:0.893353 4:0.931122 5:0.977114 6:0.931849 7:0.953656 8:0.975551 9:0.986945 10:0.995291 
1 1:0.964165 2:0.997788 3:0.879639 4:0.995748 5:0.974477 6:0.977824 7:0.931692 8:0.928307 9:0.963453 10:0.995352 
1 1:0.882246 2:0.967665 3:0.972498 4:0.989286 5:0.935814 6:0.994912 7:0.98663 8:0.994503 9:0.943545 10:0.961498 
1 1:0.96321 2:0.926955 3:0.8993 4:0.967327 5:0.929831 6:0.974198 7:0.977383 8:0.994375 9:0.981305 10:0.956031 
1 1:0.885443 2:0.928037 3:0.999038 4:0.974056 5:0.913423 6:0.93113 7:0.951204 8:0.955062 9:0.996183 10:0.95465 
1 1:0.852752 2:0.867151 3:0.999246 4:0.978371 5:0.903374 6:0.966466 7:0.923756 8:0.965391 9:0.971834 10:0.973691 
1 1:0.927441 2:0.925471 3:0.998406 4:0.991295 5:0.984953 6:0.925107 7:0.988848 8:0.935049 9:0.942049 10:0.958735 
1 1:0.986292 2:0.970143 3:0.962078 4:0.973953 5:0.927312 6:0.970009 7:0.962339 8:0.926743 9:0.979039 10:0.95826 
1 1:0.954093 2:0.902838 3:0.991241 4:0.930482 5:0.969819 6:0.999152 7:0.965509 8:0.995089 9:0.934468 10:0.985898 
1 1:0.975814 2:0.903504 3:0.889529 4:0.99706 5:0.944605 6:0.969024 7:0.960911 8:0.97726 9:0.946446 10:0.96068 
1 1:0.953431 2:0.885184 3:0.967799 4:0.954766 5:0.968358 6:0.984881 7:0.941682 8:0.977681 9:0.950741 10:0.965827 
1 1:0.973186 2:0.8724 3:0.951391 4:0.891011 5:0.954638 6:0.982605 7:0.969326 8:0.980635 9:0.972579 10:0.95348 
1 1:0.967644 2:0.949971 3:0.964864 4:0.975209 5:0.898312 6:0.914258 7:0.938938 8:0.943615 9:0.955687 10:0.997097 
1 1:0.986056 2:0.900739 3:0.942271 4:0.914983 5:0.969278 6:0.967977 7:0.942352 8:0.992241 9:0.96013 10:0.985605 
1 1:0.994741 2:0.977223 3:0.898875 4:0.889562 5:0.900808 6:0.960956 7:0.998738 8:0.996656 9:0.967558 10:0.984839 
1 1:0.982379 2:0.918514 3:0.967331 4:0.939736 5:0.911663 6:0.940868 7:0.977304 8:0.943646 9:0.938445 10:0.98227 
1 1:0.859214 2:0.862524 3:0.993095 4:0.912235 5:0.932113 6:0.977931 7:0.970617 8:0.989218 9:0.97489 10:0.969475 
1 1:0.945482 2:0.971051 3:0.962799 4:0.977015 5:0.941871 6:0.997591 7:0.982649 8:0.982252 9:0.962209 10:0.989874 
1 1:0.883132 2:0.852034 3:0.943068 4:0.94168 5:0.994255 6:0.987184 7:0.967885 8:0.962975 9:0.967333 10:0.980385 
1 1:0.940176 2:0.984456 3:0.962668 4:0.892974 5:0.947 6:0.968042 7:0.982089 8:0.982759 9:0.965889 10:0.934799 
1 1:0.953408 2:0.979554 3:0.92679 4:0.928758 5:0.947258 6:0.941351 7:0.984885 8:0.952536 9:0.928564 10:0.992589 
1 1:0.938229 2:0.989041 3:0.991092 4:0.902274 5:0.927025 6:0.934162 7:0.947876 8:0.959374 9:0.995896 10:0.955013 
1 1:0.831934 2:0.97944 3:0.984987 4:0.903216 5:0.977392 6:0.931105 7:0.920548 8:0.95307 9:0.980296 10:0.962824 
1 1:0.963715 2:0.990768 3:0.973688 4:0.989 5:0.951485 6:0.918454 7:0.996633 8:0.936802 9:0.928207 10:0.962017 
1 1:0.962101 2:0.963636 3:0.953768 4:0.89536 5:0.931135 6:0.944947 7:0.997754 8:0.932618 9:0.94578 10:0.982691 
1 1:0.945416 2:0.980804 3:0.898336 4:0.98119 5:0.905799 6:0.980959 7:0.999948 8:0.98342 9:0.929583 10:0.99578 
1 1:0.922156 2:0.969032 3:0.977958 4:0.971679 5:0.974828 6:0.927247 7:0.935283 8:0.98317 9:0.949357 10:0.963733 
1 1:0.9564 2:0.961251 3:0.873943 4:0.962754 5:0.957163 6:0.935594 7:0.980927 8:0.9535 9:0.99811 10:0.958391 
1 1:0.847889 2:0.926348 3:0.92013 4:0.988712 5:0.997649 6:0.971105 7:0.977813 8:0.994922 9:0.985048 10:0.95804 
1 1:0.891198 2:0.90842 3:0.988971 4:0.895365 5:0.98392 6:0.944922 7:0.983034 8:0.979992 9:0.938151 10:0.976737 
1 1:0.942315 2:0.98518 3:0.982734 4:0.937227 5:0.9766 6:0.911459 7:0.956587 8:0.932833 9:0.990733 10:0.964821 
1 1:0.867307 2:0.900663 3:0.958059 4:0.927485 5:0.973199 6:0.980494 7:0.954499 8:0.994814 9:0.968749 10:0.986493 
1 1:0.914496 2:0.904307 3:0.991305 4:0.955102 5:0.928205 6:0.993486 7:0.955971 8:0.974869 9:0.967649 10:0.977155 
1 1:0.884675 2:0.991263 3:0.929926 4:0.995204 5:0.903947 6:0.960191 7:0.935238 8:0.983642 9:0.993832 10:0.934798 
1 1:0.919881 2:0.918313 3:0.999264 4:0.933178 5:0.960497 6:0.922633 7:0.950291 8:0.991079 9:0.996516 10:0.981151 
1 1:0.917261 2:0.918006 3:0.991575 4:0.944502 5:0.945602 6:0.972792 7:0.970594 8:0.963797 9:0.946937 10:0.997803 
1 1:0.968692 2:0.978841 3:0.99715 4:0.915913 5:0.919154 6:0.929067 7:0.9706 8:0.944748 9:0.948092 10:0.972751 
1 1:0.954333 2:0.985222 3:0.87394 4:0.950733 5:0.920598 6:0.998871 7:0.922653 8:0.990571 9:0.988717 10:0.986158 
1 1:0.855893 2:0.945226 3:0.96257 4:0.900709 5:0.900531 6:0.963691 7:0.930223 8:0.984837 9:0.998966 10:0.999419 
1 1:0.989472 2:0.856439 3:0.931516 4:0.943933 5:0.926784 6:0.959601 7:0.937582 8:0.98737 9:0.939791 10:0.988344 
1 1:0.971122 2:0.873467 3:0.984607 4:0.980976 5:0.978232 6:0.96575 7:0.958681 8:0.942595 9:0.948966 10:0.969529 
1 1:0.926522 2:0.978975 3:0.963478 4:0.953427 5:0.942281 6:0.929655 7:0.969307 8:0.967444 9:0.990259 10:0.986998 
1 1:0.971884 2:0.998519 3:0.906787 4:0.972369 5:0.936572 6:0.942092 7:0.934899 8:0.985392 9:0.99627 10:0.983151 
1 1:0.932015 2:0.853663 3:0.972103 4:0.943074 5:0.99379 6:0.996306 7:0.997181 8:0.968908 9:0.998938 10:0.991022 
1 1:0.971498 2:0.984597 3:0.904933 4:0.90706 5:0.967087 6:0.996057 7:0.957511 8:0.975399 9:0.935488 10:0.938439 
1 1:0.974595 2:0.976162 3:0.968521 4:0.942378 5:0.996164 6:0.939006 7:0.95016 8:0.952682 9:0.930935 10:0.938772 
1 1:0.993932 2:0.908559 3:0.871414 4:0.964012 5:0.914168 6:0.98221 7:0.947042 8:0.981841 9:0.939748 10:0.937311 
1 1:0.964364 2:0.996104 3:0.960441 4:0.988856 5:0.960645 6:0.908308 7:0.957076 8:0.936742 9:0.993324 10:0.943856 
1 1:0.895138 2:0.984537 3:0.92208 4:0.982517 5:0.97556 6:0.949386 7:0.923063 8:0.968575 9:0.944949 10:0.961207 
1 1:0.870123 2:0.972617 3:0.960213 4:0.977581 5:0.962388 6:0.96201 7:0.939449 8:0.944744 9:0.963106 10:0.980574 
1 1:0.942713 2:0.998373 3:0.972249 4:0.941995 5:0.914384 6:0.925655 7:0.976925 8:0.99392 9:0.947506 10:0.977688 
1 1:0.981145 2:0.865421 3:0.973833 4:0.987854 5:0.917852 6:0.926219 7:0.974614 8:0.935464 9:0.973244 10:0.947354 
1 1:0.940406 2:0.90812 3:0.893174 4:0.971578 5:0.99734 6:0.931368 7:0.975373 8:0.925291 9:0.991832 10:0.959821 
1 1:0.94319 2:0.961078 3:0.938539 4:0.934278 5:0.905013 6:0.958537 7:0.995991 8:0.986062 9:0.948798 10:0.97232 
1 1:0.948815 2:0.947529 3:0.97568 4:0.971299 5:0.964447 6:0.93851 7:0.988423 8:0.955877 9:0.987694 10:0.934886 
1 1:0.849107 2:0.955132 3:0.95867 4:0.997579 5:0.926022 6:0.968897 7:0.98005 8:0.988797 9:0.964547 10:0.972383 
1 1:0.907107 2:0.994998 3:0.978532 4:0.994512 5:0.997895 6:0.938557 7:0.953572 8:0.997929 9:0.999611 10:0.965438 
1 1:0.995162 2:0.875438 3:0.99406 4:0.932529 5:0.938073 6:0.945336 7:0.969433 8:0.937225 9:0.937278 10:0.972969 
1 1:0.971838 2:0.987683 3:0.897354 4:0.974981 5:0.942423 6:0.987577 7:0.960376 8:0.938747 9:0.929546 10:0.980142 
1 1:0.883437 2:0.921138 3:0.98831 4:0.948846 5:0.955276 6:0.954907 7:0.998487 8:0.983884 9:0.930384 10:0.992771 
1 1:0.949091 2:0.993989 3:0.913189 4:0.988432 5:0.952753 6:0.954413 7:0.991528 8:0.94001 9:0.995781 10:0.960486 
1 1:0.943502 2:0.958017 3:0.975359 4:0.904681 5:0.990975 6:0.952956 7:0.932098 8:0.927864 9:0.962472 10:0.994618 
1 1:0.892929 2:0.997238 3:0.961139 4:0.949355 5:0.962668 6:0.94365 7:0.917126 8:0.981026 9:0.992897 10:0.94151 
1 1:0.999177 2:0.876193 3:0.961817 4:0.974798 5:0.90214 6:0.964834 7:0.960142 8:0.974973 9:0.949215 10:0.967678 
1 1:0.941728 2:0.996935 3:0.886841 4:0.967634 5:0.97922 6:0.990954 7:0.977874 8:0.927131 9:0.976929 10:0.957056 
1 1:0.91367 2:0.991863 3:0.957768 4:0.887782 5:0.949286 6:0.964912 7:0.978678 8:0.991983 9:0.960151 10:0.99548 
1 1:0.828873 2:0.923276 3:0.97537 4:0.910836 5:0.986456 6:0.95628 7:0.968885 8:0.963048 9:0.945904 10:0.983305 
1 1:0.868429 2:0.96086 3:0.958538 4:0.987161 5:0.945011 6:0.940388 7:0.982118 8:0.981825 9:0.958855 10:0.934575 
1 1:0.858155 2:0.907801 3:0.973545 4:0.96985 5:0.976491 6:0.971828 7:0.954456 8:0.95702 9:0.983909 10:0.994799 
0.4013261688692679 1:0.932334 2:0.93743 3:0.903413 4:0.940708 5:0.929753 6:0.996565 7:0.949095 8:0.981176 9:0.989014 10:0.96014 
1 1:0.980799 2:0.90693 3:0.952462 4:0.979946 5:0.949843 6:0.931773 7:0.964453 8:0.998741 9:0.99373 10:0.957344 
1 1:0.883081 2:0.873184 3:0.901335 4:0.973018 5:0.999552 6:0.983966 7:0.942899 8:0.994508 9:0.932229 10:0.996186 
1 1:0.989303 2:0.978018 3:0.935064 4:0.972643 5:0.972608 6:0.910308 7:0.947224 8:0.975309 9:0.981392 10:0.968704 
1 1:0.972289 2:0.984966 3:0.955906 4:0.968196 5:0.934421 6:0.92787 7:0.916389 8:0.991768 9:0.977435 10:0.947359 
1 1:0.849988 2:0.984602 3:0.984357 4:0.993262 5:0.970015 6:0.950968 7:0.939407 8:0.959825 9:0.933283 10:0.962146 
1 1:0.888587 2:0.998595 3:0.984598 4:0.951739 5:0.922676 6:0.943987 7:0.99623 8:0.994483 9:0.96987 10:0.988551 
1 1:0.983751 2:0.970254 3:0.973589 4:0.948482 5:0.92953 6:0.974353 7:0.951713 8:0.939905 9:0.957979 10:0.944363 
1 1:0.982638 2:0.997931 3:0.964331 4:0.886726 5:0.990018 6:0.911741 7:0.971515 8:0.924933 9:0.9487 10:0.967585 
1 1:0.922456 2:0.923363 3:0.964876 4:0.964305 5:0.957817 6:0.960513 7:0.996705 8:0.990281 9:0.972913 10:0.984943 
1 1:0.954278 2:0.864891 3:0.878456 4:0.96296 5:0.926633 6:0.99552 7:0.979427 8:0.959361 9:0.988117 10:0.949708 
1 1:0.956716 2:0.884519 3:0.993502 4:0.949625 5:0.987605 6:0.973214 7:0.95627 8:0.923662 9:0.982905 10:0.9731 
1 1:0.927014 2:0.978197 3:0.917259 4:0.978171 5:0.973956 6:0.98615 7:0.976335 8:0.974962 9:0.958881 10:0.963861 
1 1:0.986761 2:0.985059 3:0.882254 4:0.97143 5:0.991665 6:0.998993 7:0.982323 8:0.985463 9:0.982814 10:0.948992 
1 1:0.903082 2:0.909982 3:0.892058 4:0.918754 5:0.992264 6:0.993489 7:0.964452 8:0.999216 9:0.959172 10:0.940785 
1 1:0.844862 2:0.990086 3:0.888178 4:0.960432 5:0.919503 6:0.976262 7:0.985339 8:0.969271 9:0.985186 10:0.958706 
1 1:0.998858 2:0.981126 3:0.919391 4:0.973221 5:0.919105 6:0.990728 7:0.985229 8:0.961247 9:0.963652 10:0.990401 
1 1:0.913793 2:0.985705 3:0.978921 4:0.903875 5:0.951954 6:0.970856 7:0.944487 8:0.985971 9:0.948227 10:0.998678 
1 1:0.972992 2:0.99483 3:0.984826 4:0.938304 5:0.929694 6:0.984293 7:0.995046 8:0.936404 9:0.999862 10:0.971798 
1 1:0.90472 2:0.884519 3:0.951696 4:0.928709 5:0.985634 6:0.941652 7:0.988392 8:0.970011 9:0.995844 10:0.954399 
1 1:0.979278 2:0.993273 3:0.922929 4:0.929534 5:0.943396 6:0.918374 7:0.923505 8:0.985734 9:0.978687 10:0.964797 
1 1:0.903591 2:0.950801 3:0.981503 4:0.966844 5:0.956586 6:0.989599 7:0.918173 8:0.938374 9:0.947757 10:0.966371 
1 1:0.953838 2:0.967547 3:0.944609 4:0.919467 5:0.926892 6:0.92637 7:0.978257 8:0.938164 9:0.98635 10:0.99834 
1 1:0.865055 2:0.943961 3:0.979248 4:0.892707 5:0.902136 6:0.992011 7:0.993497 8:0.944652 9:0.977949 10:0.992414 
1 1:0.877591 2:0.943017 3:0.894174 4:0.919092 5:0.983332 6:0.967243 7:0.992142 8:0.922153 9:0.998745 10:0.970123 
1 1:0.887599 2:0.93245 3:0.967975 4:0.963858 5:0.919638 6:0.948877 7:0.984825 8:0.994603 9:0.979935 10:0.956034 
1 1:0.996661 2:0.882167 3:0.936222 4:0.998161 5:0.942581 6:0.974205 7:0.927813 8:0.960357 9:0.990005 10:0.968695 
1 1:0.99789 2:0.893191 3:0.993689 4:0.918108 5:0.911204 6:0.937345 7:0.933991 8:0.98048 9:0.981068 10:0.937034 
1 1:0.975509 2:0.979778 3:0.920469 4:0.969891 5:0.957032 6:0.972765 7:0.968317 8:0.922217 9:0.941778 10:0.934187 
1 1:0.988269 2:0.999391 3:0.882836 4:0.992152 5:0.985689 6:0.975712 7:0.953352 8:0.957787 9:0.953795 10:0.939624 
1 1:0.850292 2:0.962391 3:0.945554 4:0.962125 5:0.909616 6:0.95076 7:0.980198 8:0.997213 9:0.947666 10:0.959869 
1 1:0.913219 2:0.869034 3:0.995875 4:0.965916 5:0.966649 6:0.993912 7:0.998907 8:0.974487 9:0.989066 10:0.933142 
1 1:0.873601 2:0.998579 3:0.911353 4:0.993876 5:0.999322 6:0.909489 7:0.982256 8:0.961014 9:0.977156 10:0.988515 
1 1:0.906653 2:0.95423 3:0.959741 4:0.990961 5:0.975126 6:0.946128 7:0.954565 8:0.974695 9:0.954401 10:0.988753 
1 1:0.889486 2:0.992658 3:0.999286 4:0.945293 5:0.991841 6:0.971222 7:0.96333 8:0.98203 9:0.937845 10:0.951476 
1 1:0.986099 2:0.855258 3:0.943506 4:0.896151 5:0.946913 6:0.947476 7:0.987633 8:0.977874 9:0.945857 10:0.992578 
1 1:0.91868 2:0.985446 3:0.950897 4:0.889773 5:0.963437 6:0.947732 7:0.951286 8:0.955248 9:0.995412 10:0.984555 
1 1:0.942413 2:0.872167 3:0.99481 4:0.952092 5:0.964548 6:0.94929 7:0.921622 8:0.964997 9:0.984557 10:0.986742 
1 1:0.929433 2:0.903023 3:0.976046 4:0.95909 5:0.941404 6:0.913354 7:0.992816 8:0.959863 9:0.975119 10:0.991995 
1 1:0.991038 2:0.927506 3:0.946651 4:0.895829 5:0.98432 6:0.976574 7:0.960879 8:0.976849 9:0.938758 10:0.949993 
1 1:0.874805 2:0.998096 3:0.900548 4:0.910329 5:0.936118 6:0.961488 7:0.953925 8:0.989155 9:0.993753 10:0.972351 
1 1:0.977564 2:0.917659 3:0.878855 4:0.997103 5:0.961868 6:0.996543 7:0.94652 8:0.997849 9:0.9976 10:0.946258 
1 1:0.995447 2:0.962014 3:0.991293 4:0.892604 5:0.933257 6:0.912577 7:0.917666 8:0.938679 9:0.954475 10:0.993522 
1 1:0.9135 2:0.99124 3:0.882179 4:0.98655 5:0.909434 6:0.914224 7:0.996079 8:0.996031 9:0.972972 10:0.965799 
1 1:0.829468 2:0.899067 3:0.972965 4:0.965709 5:0.999851 6:0.923652 7:0.934181 8:0.969067 9:0.983602 10:0.992915 
1 1:0.895046 2:0.949134 3:0.95731 4:0.979242 5:0.95696 6:0.988636 7:0.954702 8:0.960691 9:0.942602 10:0.954651 
1 1:1 2:0.921666 3:0.912144 4:0.911209 5:0.946507 6:0.955583 7:0.934085 8:0.978257 9:0.999753 10:0.992315 
1 1:0.946858 2:0.999293 3:0.936844 4:0.908302 5:0.910105 6:0.972809 7:0.964201 8:0.957061 9:0.996405 10:0.937834 
1 1:0.921965 2:0.99781 3:0.916097 4:0.972427 5:0.972049 6:0.926856 7:0.981963 8:0.95995 9:0.953969 10:0.954375 
1 1:0.901355 2:0.946104 3:0.970478 4:0.974692 5:0.974248 6:0.935515 7:0.978743 8:0.98066 9:0.971948 10:0.943335 
1 1:0.979315 2:0.910454 3:0.978463 4:0.920836 5:0.983668 6:0.958829 7:0.935595 8:0.943138 9:0.984605 10:0.946859 
1 1:0.877957 2:0.857811 3:0.939914 4:0.978909 5:0.964182 6:0.910977 7:0.965392 8:0.986373 9:0.988545 10:0.983147 
1 1:0.856879 2:0.930539 3:0.902518 4:0.979848 5:0.92828 6:0.99931 7:0.992386 8:0.938391 9:0.969863 10:0.964992 
1 1:0.851624 2:0.92381 3:0.90765 4:0.986017 5:0.943644 6:0.986985 7:0.974806 8:0.952753 9:0.963014 10:0.988608 
1 1:0.930218 2:0.97459 3:0.947541 4:0.976975 5:0.916488 6:0.939191 7:0.918215 8:0.980212 9:0.987737 10:0.985776 
1 1:0.953676 2:0.889263 3:0.949878 4:0.971427 5:0.904004 6:0.964542 7:0.940086 8:0.928453 9:0.988338 10:0.998628 
1 1:0.928262 2:0.99621 3:0.979956 4:0.976774 5:0.979055 6:0.967587 7:0.94589 8:0.940171 9:0.945867 10:0.989402 
1 1:0.916826 2:0.876025 3:0.96815 4:0.95693 5:0.982258 6:0.995201 7:0.978123 8:0.948641 9:0.994572 10:0.998311 
1 1:0.840302 2:0.917236 3:0.995539 4:0.90936 5:0.987942 6:0.926037 7:0.930945 8:0.992158 9:0.979484 10:0.99595 
1 1:0.962058 2:0.90214 3:0.994835 4:0.950329 5:0.93286 6:0.947128 7:0.932325 8:0.99315 9:0.950488 10:0.977046 
1 1:0.853918 2:0.957475 3:0.988747 4:0.975339 5:0.948964 6:0.988692 7:0.92387 8:0.947727 9:0.956918 10:0.951477 
1 1:0.936568 2:0.8593 3:0.982466 4:0.918254 5:0.997221 6:0.917547 7:0.966561 8:0.999702 9:0.945569 10:0.950359 
1 1:0.944875 2:0.935504 3:0.988694 4:0.940114 5:0.960668 6:0.978562 7:0.997555 8:0.951788 9:0.947928 10:0.96398 
1 1:0.976541 2:0.98003 3:0.956889 4:0.951143 5:0.916633 6:0.912803 7:0.988185 8:0.93897 9:0.994124 10:0.965917 
1 1:0.907262 2:0.985505 3:0.973064 4:0.9334 5:0.973315 6:0.957866 7:0.995695 8:0.998362 9:0.970786 10:0.949065 
1 1:0.95417 2:0.860323 3:0.92624 4:0.907522 5:0.906847 6:0.997908 7:0.952586 8:0.975798 9:0.976173 10:0.997859 
1 1:0.887322 2:0.95647 3:0.909392 4:0.934788 5:0.905816 6:0.95405 7:0.975071 8:0.990151 9:0.999241 10:0.997472 
1 1:0.983724 2:0.857082 3:0.98158 4:0.888405 5:0.913445 6:0.952427 7:0.942363 8:0.973436 9:0.958001 10:0.978016 
1 1:0.900796 2:0.9125 3:0.909503 4:0.90322 5:0.988496 6:0.99096 7:0.986307 8:0.984203 9:0.968042 10:0.997348 
1 1:0.939086 2:0.943294 3:0.914657 4:0.957335 5:0.975254 6:0.998418 7:0.981236 8:0.948633 9:0.968064 10:0.94181 
1 1:0.848985 2:0.938463 3:0.881535 4:0.95445 5:0.982092 6:0.988848 7:0.944598 8:0.988072 9:0.941576 10:0.987912 
1 1:0.99215 2:0.950535 3:0.903452 4:0.962856 5:0.958573 6:0.958631 7:0.99897 8:0.931232 9:0.956119 10:0.971935 
1 1:0.87828 2:0.886235 3:0.966445 4:0.989281 5:0.941097 6:0.921131 7:0.952858 8:0.955888 9:0.999879 10:0.983583 
1 1:0.936759 2:0.97354 3:0.886036 4:0.985042 5:0.941761 6:0.954478 7:0.994534 8:0.955964 9:0.961836 10:0.987415 
1 1:0.970324 2:0.930808 3:0.886944 4:0.986982 5:0.96543 6:0.924711 7:0.957029 8:0.973426 9:0.945974 10:0.959588 
1 1:0.848632 2:0.936505 3:0.958057 4:0.89332 5:0.99734 6:0.981699 7:0.970071 8:0.952131 9:0.950493 10:0.98967 
1 1:0.992007 2:0.968284 3:0.943466 4:0.982417 5:0.972963 6:0.911246 7:0.922449 8:0.98419 9:0.955161 10:0.974547 
1 1:0.955084 2:0.853839 3:0.985194 4:0.942203 5:0.906065 6:0.932037 7:0.995521 8:0.977133 9:0.971945 10:0.954749 
1 1:0.938766 2:0.923294 3:0.889564 4:0.907467 5:0.985378 6:0.988067 7:0.950474 8:0.981163 9:0.978374 10:0.999818 
1 1:0.987888 2:0.961395 3:0.989041 4:0.968162 5:0.933298 6:0.908839 7:0.968798 8:0.930525 9:0.949266 10:0.932873 
1 1:0.875897 2:0.861122 3:0.938165 4:0.993979 5:0.951421 6:0.919891 7:0.954087 8:0.99708 9:0.943685 10:0.998832 
1 1:0.944983 2:0.898643 3:0.994877 4:0.910247 5:0.992827 6:0.959986 7:0.962387 8:0.949552 9:0.948547 10:0.943946 
1 1:0.855967 2:0.932538 3:0.942615 4:0.995705 5:0.978192 6:0.923631 7:0.985223 8:0.942172 9:0.998037 10:0.975407 
1 1:0.976192 2:0.880474 3:0.977855 4:0.931439 5:0.941818 6:0.986613 7:0.994202 8:0.991376 9:0.928682 10:0.939851 
1 1:0.993231 2:0.982575 3:0.918485 4:0.969948 5:0.968604 6:0.928446 7:0.954482 8:0.977154 9:0.934078 10:0.97171 
1 1:0.866033 2:0.939928 3:0.969651 4:0.993469 5:0.923211 6:0.993647 7:0.928168 8:0.970025 9:0.984696 10:0.992141 
1 1:0.90514 2:0.874948 3:0.958357 4:0.986317 5:0.971862 6:0.948623 7:0.962886 8:0.963332 9:0.987421 10:0.982805 
1 1:0.927002 2:0.957319 3:0.878711 4:0.925367 5:0.987882 6:0.970345 7:0.935443 8:0.999598 9:0.986612 10:0.97447 
1 1:0.911443 2:0.988534 3:0.943986 4:0.917492 5:0.95741 6:0.920845 7:0.944586 8:0.997152 9:0.988966 10:0.962362 
1 1:0.944739 2:0.939002 3:0.923259 4:0.973025 5:0.923088 6:0.984657 7:0.983217 8:0.927614 9:0.975268 10:0.993267 
1 1:0.86429 2:0.998337 3:0.905365 4:0.89812 5:0.954152 6:0.91545 7:0.966474 8:0.992711 9:0.986723 10:0.969426 
1 1:0.906199 2:0.957484 3:0.932036 4:0.99288 5:0.910459 6:0.984809 7:0.921655 8:0.976703 9:0.987625 10:0.943832 
1 1:0.99908 2:0.904727 3:0.8795 4:0.945492 5:0.99312 6:0.913375 7:0.978375 8:0.932262 9:0.980288 10:0.950603 
1 1:0.976525 2:0.853341 3:0.968834 4:0.959145 5:0.975738 6:0.950835 7:0.981449 8:0.940221 9:0.954096 10:0.971631 
1 1:0.988586 2:0.939318 3:0.965394 4:0.943021 5:0.973935 6:0.932963 7:0.941601 8:0.965184 9:0.960537 10:0.992538 
1 1:0.874269 2:0.918635 3:0.99045 4:0.992521 5:0.980673 6:0.967785 7:0.998967 8:0.988194 9:0.988653 10:0.990511 
1 1:0.942073 2:0.986794 3:0.953163 4:0.982704 5:0.980568 6:0.91827 7:0.932684 8:0.979483 9:0.963918 10:0.934619 
1 1:0.837497 2:0.890684 3:0.976966 4:0.991938 5:0.931011 6:0.932643 7:0.974421 8:0.967141 9:0.984921 10:0.965139 
1 1:0.864836 2:0.947516 3:0.941139 4:0.942397 5:0.900596 6:0.99261 7:0.972083 8:0.992439 9:0.986888 10:0.97356 
1 1:0.880676 2:0.995418 3:0.983858 4:0.971407 5:0.984409 6:0.928804 7:0.92099 8:0.961544 9:0.961077 10:0.993853 
1 1:0.885164 2:0.873613 3:0.95466 4:0.998068 5:0.962229 6:0.946487 7:0.933991 8:0.967764 9:0.99421 10:0.993444 
1 1:0.830454 2:0.853444 3:0.984624 4:0.952767 5:0.924451 6:0.975732 7:0.954298 8:0.99041 9:0.992019 10:0.976333 
1 1:0.976261 2:0.947147 3:0.903975 4:0.92275 5:0.953201 6:0.995775 7:0.982157 8:0.933448 9:0.982782 10:0.991502 
1 1:0.912909 2:0.963677 3:0.989099 4:0.908563 5:0.97458 6:0.945936 7:0.938867 8:0.975352 9:0.931749 10:0.982208 
1 1:0.984327 2:0.967301 3:0.975427 4:0.994619 5:0.994311 6:0.925251 7:0.960884 8:0.983616 9:0.992142 10:0.994024 
1 1:0.877904 2:0.966367 3:0.905442 4:0.905354 5:0.994826 6:0.994817 7:0.949548 8:0.97146 9:0.961721 10:0.996571 
1 1:0.86007 2:0.979381 3:0.944733 4:0.987987 5:0.97241 6:0.955322 7:0.960671 8:0.951904 9:0.954211 10:0.939543 
1 1:0.966827 2:0.973488 3:0.947188 4:0.996523 5:0.981475 6:0.986521 7:0.997084 8:0.948464 9:0.967868 10:0.948521 
1 1:0.997922 2:0.973539 3:0.984887 4:0.931807 5:0.915984 6:0.980697 7:0.95335 8:0.991223 9:0.931333 10:0.949669 
1 1:0.83906 2:0.963988 3:0.923505 4:0.955684 5:0.988959 6:0.945258 7:0.993918 8:0.954646 9:0.960373 10:0.99519 
1 1:0.956217 2:0.939378 3:0.979896 4:0.996824 5:0.971425 6:0.99296 7:0.93181 8:0.943291 9:0.989181 10:0.977486 
1 1:0.98547 2:0.955748 3:0.87154 4:0.950527 5:0.945809 6:0.978537 7:0.915409 8:0.936038 9:0.959971 10:0.967132 
1 1:0.966114 2:0.888786 3:0.967683 4:0.941031 5:0.954813 6:0.97177 7:0.979583 8:0.942308 9:0.999038 10:0.993432 
1 1:0.899245 2:0.927311 3:0.948299 4:0.982515 5:0.980433 6:0.937888 7:0.993342 8:0.941673 9:0.951243 10:0.96281 
1 1:0.99381 2:0.991905 3:0.974795 4:0.896581 5:0.902411 6:0.983569 7:0.99842 8:0.969081 9:0.996758 10:0.978818 
1 1:0.830368 2:0.976664 3:0.95063 4:0.960888 5:0.91303 6:0.920345 7:0.992427 8:0.979381 9:0.92878 10:0.993389 
1 1:0.928835 2:0.985107 3:0.923776 4:0.95364 5:0.948791 6:0.998033 7:0.945152 8:0.975476 9:0.977601 10:0.984112 
1 1:0.875355 2:0.998841 3:0.961553 4:0.99633 5:0.948303 6:0.946725 7:0.938476 8:0.977661 9:0.970543 10:0.940095 
1 1:0.97294 2:0.966302 3:0.977893 4:0.914203 5:0.976329 6:0.996236 7:0.995981 8:0.987224 9:0.9646 10:0.97134 
1 1:0.956008 2:0.975616 3:0.934845 4:0.947049 5:0.981096 6:0.993142 7:0.943264 8:0.948785 9:0.952143 10:0.970016 
1 1:0.862906 2:0.945503 3:0.972083 4:0.990274 5:0.988841 6:0.933316 7:0.970289 8:0.946098 9:0.930116 10:0.970974 
1 1:0.966385 2:0.944108 3:0.942406 4:0.917946 5:0.935094 6:0.994006 7:0.971614 8:0.933153 9:0.935435 10:0.984004 
1 1:0.969696 2:0.864697 3:0.995259 4:0.961911 5:0.920133 6:0.951212 7:0.989847 8:0.955473 9:0.983527 10:0.940125 
1 1:0.863351 2:0.943392 3:0.984521 4:1 5:0.974926 6:0.986948 7:0.975215 8:0.932451 9:0.954292 10:0.963407 
1 1:0.88209 2:0.998038 3:0.994595 4:0.996713 5:0.905109 6:0.967004 7:0.999014 8:0.93714 9:0.983155 10:0.947879 
1 1:0.993055 2:0.863337 3:0.95575 4:0.986283 5:0.927548 6:0.989436 7:0.992423 8:0.944842 9:0.987684 10:0.999188 
1 1:0.854961 2:0.98259 3:0.884152 4:0.984316 5:0.982213 6:0.967854 7:0.995116 8:0.959727 9:0.987558 10:0.968339 
1 1:0.993843 2:0.907037 3:0.939173 4:0.901348 5:0.919812 6:0.957997 7:0.990314 8:0.972733 9:0.961064 10:0.969308 
1 1:0.906254 2:0.867735 3:0.987447 4:0.921965 5:0.982828 6:0.909723 7:0.951076 8:0.998917 9:0.955236 10:0.99595 
1 1:0.979246 2:0.991102 3:0.898001 4:0.927428 5:0.913444 6:0.907782 7:0.99625 8:0.944923 9:0.97409 10:0.977452 
1 1:0.991768 2:0.90314 3:0.995064 4:0.918917 5:0.924527 6:0.990022 7:0.939987 8:0.991704 9:0.986194 10:0.966453 
1 1:0.991707 2:0.919276 3:0.891847 4:0.938672 5:0.960628 6:0.922779 7:0.998787 8:0.930073 9:0.956463 10:0.98117 
1 1:0.998311 2:0.978845 3:0.98555 4:0.888284 5:0.928214 6:0.931012 7:0.939435 8:0.959932 9:0.992334 10:0.991253 
1 1:0.881725 2:0.955348 3:0.964278 4:0.98456 5:0.907428 6:0.977023 7:0.969073 8:0.923044 9:0.99674 10:0.977014 
1 1:0.879987 2:0.911111 3:0.9516 4:0.970112 5:0.996507 6:0.945005 7:0.940756 8:0.995665 9:0.964347 10:0.943835 
1 1:0.978501 2:0.978469 3:0.979934 4:0.989549 5:0.990691 6:0.966369 7:0.919252 8:0.97016 9:0.990734 10:0.969508 
1 1:0.943994 2:0.929916 3:0.9605 4:0.993811 5:0.988762 6:0.91119 7:0.964638 8:0.996841 9:0.941961 10:0.961662 
1 1:0.858541 2:0.93181 3:0.897988 4:0.994769 5:0.94772 6:0.989699 7:0.98045 8:0.980293 9:0.93043 10:0.933655 
1 1:0.953115 2:0.994842 3:0.935679 4:0.978905 5:0.935554 6:0.910213 7:0.934478 8:0.969725 9:0.988278 10:0.997379 
1 1:0.870509 2:0.856489 3:0.996578 4:0.98424 5:0.962253 6:0.942869 7:0.987668 8:0.967289 9:0.95246 10:0.959615 
1 1:0.905871 2:0.951829 3:1 4:0.971481 5:0.982986 6:0.911793 7:0.979067 8:0.941592 9:0.995777 10:0.984955 
1 1:0.964423 2:0.979306 3:0.981942 4:0.954649 5:0.926107 6:0.913748 7:0.961048 8:0.936389 9:0.927933 10:0.984708 
1 1:0.982881 2:0.873424 3:0.985773 4:0.990285 5:0.985711 6:0.92454 7:0.9817 8:0.963175 9:0.958846 10:0.997804 
1 1:0.874344 2:0.987314 3:0.881255 4:0.89864 5:1 6:0.9224 7:0.978035 8:0.975502 9:0.978872 10:0.992616 
1 1:0.844299 2:0.86887 3:0.977751 4:0.961555 5:0.993321 6:0.977259 7:0.931725 8:0.958265 9:0.967399 10:0.933702 
1 1:0.971196 2:0.89187 3:0.998743 4:0.979041 5:0.992489 6:0.917553 7:0.97596 8:0.995774 9:0.98232 10:0.962756 
1 1:0.974839 2:0.957141 3:0.97283 4:0.968121 5:0.910645 6:0.916493 7:0.986213 8:0.959538 9:0.935894 10:0.986699 
1 1:0.869235 2:0.937327 3:0.965341 4:0.931154 5:0.944106 6:0.930598 7:1 8:0.989125 9:0.983647 10:0.946669 
1 1:0.992797 2:0.938454 3:0.983053 4:0.935746 5:0.981503 6:0.939256 7:0.923786 8:0.990658 9:0.985056 10:0.948954 
1 1:0.900076 2:0.960765 3:0.911761 4:0.944682 5:0.975627 6:0.93676 7:0.998513 8:0.933581 9:0.976649 10:0.979813 
1 1:0.917869 2:0.984701 3:0.962092 4:0.940905 5:0.926277 6:0.930618 7:0.970974 8:0.990694 9:0.96359 10:0.936407 
1 1:0.921873 2:0.897429 3:0.983173 4:0.922482 5:0.959716 6:0.997079 7:0.96275 8:0.997755 9:0.990701 10:0.952341 
1 1:0.886885 2:0.88938 3:0.886776 4:0.999185 5:0.964784 6:0.945971 7:0.98016 8:0.950627 9:0.987449 10:0.998826 
1 1:0.993437 2:0.969707 3:0.960521 4:0.895665 5:0.914177 6:0.950702 7:0.942696 8:0.984665 9:0.981443 10:0.979764 
1 1:0.995644 2:0.933946 3:0.895557 4:0.904138 5:0.988245 6:0.978658 7:0.999186 8:0.974207 9:0.945754 10:0.988586 
1 1:0.991633 2:0.916196 3:0.90168 4:0.890518 5:0.929303 6:0.962758 7:0.981613 8:0.928649 9:0.989305 10:0.996883 
1 1:0.93482 2:0.890342 3:0.979902 4:0.895936 5:0.960759 6:0.999942 7:0.954077 8:0.948815 9:0.969069 10:0.960768 
1 1:0.90861 2:0.996213 3:0.945724 4:0.892235 5:0.991367 6:0.935986 7:0.976254 8:0.924302 9:0.964318 10:0.965144 
1 1:0.967037 2:0.96738 3:0.972307 4:0.994346 5:0.949543 6:0.938385 7:0.979049 8:0.922072 9:0.964421 10:0.936653 
1 1:0.983263 2:0.924806 3:0.921255 4:0.977335 5:0.977913 6:0.919595 7:0.935773 8:0.965942 9:0.978417 10:0.965398 
1 1:0.855149 2:0.97436 3:0.882242 4:0.968064 5:0.95228 6:0.979876 7:0.977438 8:0.957163 9:0.97897 10:0.983274 
1 1:0.998326 2:0.971707 3:0.99078 4:0.910841 5:0.961112 6:0.981481 7:0.955263 8:0.961243 9:0.979216 10:0.96117 
1 1:0.929762 2:0.86045 3:0.900665 4:0.954574 5:0.986188 6:0.988593 7:0.988567 8:0.983888 9:0.946936 10:0.943015 
1 1:0.971519 2:0.902136 3:0.901517 4:0.937828 5:0.998139 6:0.971966 7:0.943963 8:0.944787 9:0.927826 10:0.994613 
1 1:0.866626 2:0.958534 3:0.957579 4:0.986947 5:0.973256 6:0.966012 7:0.962966 8:0.990689 9:0.943607 10:0.964332 
1 1:0.920892 2:0.927782 3:0.988157 4:0.996264 5:0.911542 6:0.907949 7:0.980073 8:0.961653 9:0.960127 10:0.956071 
1 1:0.990623 2:0.912466 3:0.878653 4:0.965755 5:0.913708 6:0.995184 7:0.924969 8:0.980065 9:0.951676 10:0.991726 
1 1:0.864867 2:0.986852 3:0.996625 4:0.926667 5:0.927455 6:0.937729 7:0.999445 8:0.934657 9:0.954873 10:0.968912 
1 1:0.968831 2:0.938581 3:0.903703 4:0.946776 5:0.959924 6:0.967442 7:0.961688 8:0.948101 9:0.976448 10:0.96633 
1 1:0.936789 2:0.931364 3:0.960232 4:0.956428 5:0.988453 6:0.958615 7:0.992072 8:0.93576 9:0.932537 10:0.952979 
1 1:0.973296 2:0.88242 3:0.992014 4:0.885944 5:0.975931 6:0.95236 7:0.993018 8:0.975727 9:0.94058 10:0.946857 
1 1:0.864703 2:0.963628 3:0.969224 4:0.934755 5:0.955841 6:0.953208 7:0.956834 8:0.995319 9:0.945358 10:0.993732 
1 1:0.967307 2:0.899219 3:0.934787 4:0.968894 5:0.928876 6:0.97851 7:0.920561 8:0.946313 9:0.993208 10:0.99267 
1 1:0.951718 2:0.927097 3:0.998405 4:0.945139 5:0.95465 6:0.997634 7:0.942008 8:0.986963 9:0.984677 10:0.965448 
1 1:0.842742 2:0.953173 3:0.994746 4:0.984439 5:0.994301 6:0.920787 7:0.958823 8:0.966088 9:0.937583 10:0.995297 
1 1:0.995995 2:0.941446 3:0.899589 4:0.912682 5:0.923594 6:0.938624 7:0.966636 8:0.96259 9:0.962951 10:0.989486 
1 1:0.984492 2:0.913418 3:0.892611 4:0.894888 5:0.996439 6:0.951025 7:0.952209 8:0.940136 9:0.95866 10:0.981585 
1 1:0.990669 2:0.936545 3:0.927382 4:0.98228 5:0.906799 6:0.992505 7:0.983194 8:0.929997 9:0.947042 10:0.995427 
1 1:0.961164 2:0.886887 3:0.879666 4:0.986943 5:0.999532 6:0.92367 7:0.955523 8:0.9587 9:0.98684 10:0.940031 
1 1:0.979134 2:0.897417 3:0.948305 4:0.934566 5:0.97417 6:0.931278 7:0.928709 8:0.990489 9:0.999648 10:0.973577 
1 1:0.987957 2:0.974794 3:0.961173 4:0.946873 5:0.985428 6:0.920346 7:0.942469 8:0.954114 9:0.993055 10:0.948977 
1 1:0.888876 2:0.927388 3:0.953915 4:0.944829 5:0.963009 6:0.986499 7:0.967028 8:0.994937 9:0.938913 10:0.988681 
1 1:0.97362 2:0.943359 3:0.956195 4:0.918881 5:0.937014 6:0.92656 7:0.954333 8:0.960426 9:0.989552 10:0.975222 
1 1:0.906726 2:0.930697 3:0.997165 4:0.980398 5:0.963939 6:0.985906 7:0.933225 8:0.943997 9:0.982567 10:0.997043 
1 1:0.997564 2:0.961024 3:0.964065 4:0.990638 5:0.905038 6:0.950593 7:0.943304 8:0.990068 9:0.991229 10:0.989987 
1 1:0.922675 2:0.924842 3:0.984867 4:0.989649 5:0.948507 6:0.964468 7:0.999508 8:0.99192 9:0.931489 10:0.953129 
1 1:0.991446 2:0.859262 3:0.960825 4:0.990765 5:0.929136 6:0.999514 7:0.915239 8:0.930817 9:0.976056 10:0.96791 
1 1:0.848448 2:0.852919 3:0.98328 4:0.887448 5:0.989434 6:0.991416 7:0.983878 8:0.929621 9:0.929001 10:0.979125 
1 1:0.856409 2:0.985949 3:0.926947 4:0.945403 5:0.953642 6:0.985333 7:0.995638 8:0.97157 9:0.951809 10:0.990329 
1 1:0.872448 2:0.992661 3:0.985542 4:0.926853 5:0.964818 6:0.908116 7:0.954078 8:0.97876 9:0.967893 10:0.981658 
1 1:0.921779 2:1 3:0.903233 4:0.9997 5:0.923477 6:0.951537 7:0.999321 8:0.923451 9:0.941658 10:0.953698 
1 1:0.975351 2:0.967506 3:0.967022 4:0.939814 5:0.945898 6:0.909841 7:0.951875 8:0.938909 9:0.928325 10:0.980109 
1 1:0.923321 2:0.994786 3:0.881107 4:0.918475 5:0.962415 6:0.998614 7:0.950925 8:0.952412 9:0.994481 10:0.997164 
1 1:0.89879 2:0.996578 3:0.874896 4:0.956938 5:0.97084 6:0.930775 7:0.993537 8:0.970923 9:0.949076 10:0.993382 
1 1:0.845242 2:0.986191 3:0.983676 4:0.974325 5:0.995262 6:0.907891 7:0.982723 8:0.938765 9:0.980927 10:0.949838 
1 1:0.969611 2:0.977287 3:0.941118 4:0.951973 5:0.934233 6:0.988131 7:0.963238 8:0.923925 9:0.929825 10:0.947561 
1 1:0.841319 2:0.991259 3:0.8765 4:0.971935 5:0.93997 6:0.985006 7:0.967948 8:0.959851 9:0.945248 10:0.953628 
1 1:0.985008 2:0.963411 3:0.960873 4:0.887997 5:0.985196 6:0.915562 7:0.94263 8:0.997968 9:0.993472 10:0.968149 
1 1:0.990138 2:0.982724 3:0.987987 4:0.981667 5:0.993659 6:0.959108 7:0.926249 8:0.982804 9:0.995979 10:0.936742 
1 1:0.982387 2:0.928381 3:0.96535 4:0.995157 5:0.951488 6:0.984406 7:0.988298 8:0.992217 9:0.951174 10:0.964644 
1 1:0.881429 2:0.935989 3:0.977741 4:0.962924 5:0.986223 6:0.975771 7:0.947064 8:0.988512 9:0.962622 10:0.954981 
1 1:0.870853 2:0.91177 3:0.987004 4:0.926372 5:0.991228 6:0.984767 7:0.955275 8:0.970179 9:0.981366 10:0.982169 
0.9949221185577739 1:0.856844 2:0.913718 3:0.882804 4:0.980641 5:0.975689 6:0.999391 7:0.915404 8:0.948965 9:0.985654 10:0.964629 
1 1:0.853132 2:0.88087 3:0.939716 4:0.911853 5:0.983205 6:0.991126 7:0.983795 8:0.966323 9:0.967161 10:0.998083 
1 1:0.986392 2:0.978886 3:0.953472 4:0.911651 5:0.956037 6:0.924226 7:0.946423 8:0.959699 9:0.995266 10:0.977472 
1 1:0.974877 2:0.954256 3:0.944496 4:0.986506 5:0.905265 6:0.959756 7:0.981608 8:0.985425 9:0.982927 10:0.945036 
1 1:0.962454 2:0.972333 3:0.96869 4:0.995801 5:0.970012 6:0.916017 7:0.94514 8:0.94246 9:0.98134 10:0.948023 
1 1:0.965739 2:0.922207 3:0.978638 4:0.947835 5:0.980731 6:0.93499 7:0.943667 8:0.977951 9:0.973987 10:0.94476 
1 1:0.86527 2:0.968424 3:0.901398 4:0.984376 5:0.995585 6:0.990163 7:0.951171 8:0.936069 9:0.987695 10:0.980867 
1 1:0.941078 2:0.966988 3:0.91298 4:0.949248 5:0.932141 6:0.956343 7:0.987776 8:0.925072 9:0.997186 10:0.963972 
1 1:0.980527 2:0.932547 3:0.982014 4:0.931835 5:0.957145 6:0.979611 7:0.944217 8:0.983766 9:0.984773 10:0.99217 
1 1:0.839853 2:0.8929 3:0.888704 4:0.987314 5:0.918263 6:0.990698 7:0.990955 8:0.978642 9:0.999186 10:0.932726 
1 1:0.979947 2:0.86849 3:0.908436 4:0.929782 5:0.998024 6:0.919135 7:0.949551 8:0.971411 9:0.999627 10:0.962048 
1 1:0.826481 2:0.872382 3:0.895878 4:0.954071 5:0.998762 6:0.952106 7:0.977053 8:0.97379 9:0.985818 10:0.959696 
1 1:0.928397 2:0.951518 3:0.93769 4:0.944245 5:0.98962 6:0.965162 7:0.997963 8:0.967857 9:0.982805 10:0.974083 
1 1:0.976039 2:0.964614 3:0.989091 4:0.987772 5:0.912495 6:0.965959 7:0.948028 8:0.938923 9:0.92984 10:0.938742 
1 1:0.983219 2:0.883644 3:0.985491 4:0.996119 5:0.975705 6:0.946412 7:0.948296 8:0.965135 9:0.929455 10:0.949666 
1 1:0.981672 2:0.890821 3:0.959975 4:0.952351 5:0.951717 6:0.947614 7:0.972324 8:0.944238 9:0.977663 10:0.970491 
1 1:0.890714 2:0.930648 3:0.931028 4:0.926409 5:0.991676 6:0.913233 7:0.998654 8:0.996108 9:0.957528 10:0.989534 
1 1:0.945216 2:0.978929 3:0.99745 4:0.954203 5:0.971549 6:0.944505 7:0.934176 8:0.986174 9:0.984216 10:0.957844 
1 1:0.95436 2:0.966332 3:0.927581 4:0.911121 5:0.946979 6:0.961491 7:0.98909 8:0.983139 9:0.944928 10:0.998675 
1 1:0.839716 2:0.856097 3:0.971421 4:0.986351 5:0.905713 6:0.921449 7:0.985236 8:0.980357 9:0.970857 10:0.967903 
1 1:0.851486 2:0.936257 3:0.915177 4:0.899714 5:0.994212 6:0.965574 7:0.998989 8:0.973289 9:0.997135 10:0.989386 
1 1:0.941022 2:0.99356 3:0.997766 4:0.939211 5:0.95594 6:0.908571 7:0.956473 8:0.991565 9:0.952754 10:0.96201 
1 1:0.874187 2:0.95174 3:0.900512 4:0.927467 5:0.964691 6:0.964451 7:0.99056 8:0.983144 9:0.946515 10:0.992103 
1 1:0.991313 2:0.984011 3:0.912596 4:0.978062 5:0.905913 6:0.987842 7:0.990107 8:0.960974 9:0.985309 10:0.954016 
1 1:0.993546 2:0.996703 3:0.919266 4:0.925983 5:0.934838 6:0.972267 7:0.966572 8:0.949684 9:0.93266 10:0.980118 
1 1:0.981829 2:0.939741 3:0.891918 4:0.958606 5:0.931606 6:0.994813 7:0.937551 8:0.942068 9:0.963753 10:0.958256 
1 1:0.999913 2:0.964193 3:0.916682 4:0.891065 5:0.946413 6:0.966692 7:0.973535 8:0.954737 9:0.937314 10:0.964432 
1 1:0.970642 2:0.972808 3:0.975929 4:0.916354 5:0.942439 6:0.958147 7:0.961648 8:0.975446 9:0.965797 10:0.995794 
1 1:0.946392 2:0.903182 3:0.915453 4:0.990285 5:0.999279 6:0.908516 7:0.968026 8:0.952968 9:0.970068 10:0.944616 
1 1:0.918242 2:0.857751 3:0.963709 4:0.990654 5:0.974331 6:0.985825 7:0.996629 8:0.972633 9:0.96513 10:0.986196 
1 1:0.830528 2:0.896554 3:0.978371 4:0.982521 5:0.902663 6:0.921466 7:0.990774 8:0.990586 9:0.95345 10:0.961262 
1 1:0.904806 2:0.925807 3:0.990813 4:0.922637 5:0.956971 6:0.930719 7:0.957803 8:0.990141 9:0.984228 10:0.974447 
1 1:0.848661 2:0.865067 3:0.978017 4:0.987758 5:0.930296 6:0.922811 7:0.975631 8:0.96481 9:0.995809 10:0.973764 
1 1:0.977181 2:0.926884 3:0.919654 4:0.974724 5:0.942395 6:0.934912 7:0.989394 8:0.997303 9:0.946818 10:0.966529 
1 1:0.926618 2:0.967885 3:0.977872 4:0.917968 5:0.969735 6:0.928667 7:0.95843 8:0.979355 9:0.987829 10:0.94722 
1 1:0.843016 2:0.967091 3:0.878276 4:0.976218 5:0.968678 6:0.926952 7:0.933042 8:0.996104 9:0.97326 10:1 
1 1:0.971095 2:0.946623 3:0.934732 4:0.886912 5:0.960396 6:0.942054 7:0.938564 8:0.971391 9:0.993751 10:0.963045 
1 1:0.971214 2:0.988205 3:0.917979 4:0.960272 5:0.996842 6:0.96926 7:0.993261 8:0.946487 9:0.967263 10:0.932493 
1 1:0.998663 2:0.979782 3:0.904061 4:0.995978 5:0.955982 6:0.993528 7:0.915692 8:0.927852 9:0.972027 10:0.958857 
1 1:0.984231 2:0.89684 3:0.919546 4:0.968958 5:0.953889 6:0.99873 7:0.929689 8:0.925235 9:0.986584 10:0.968876 
1 1:0.96557 2:0.924932 3:0.967153 4:0.985958 5:0.957084 6:0.918566 7:0.98995 8:0.96374 9:0.960717 10:0.958085 
1 1:0.997363 2:0.869 3:0.971977 4:0.892404 5:0.978062 6:0.957949 7:0.995944 8:0.987946 9:0.981827 10:0.951022 
1 1:0.923985 2:0.996301 3:0.937353 4:0.974167 5:0.917084 6:0.961652 7:0.99618 8:0.991216 9:0.951639 10:0.94555 
1 1:0.952698 2:0.859669 3:0.960619 4:0.938327 5:0.990723 6:0.963877 7:0.994294 8:0.996605 9:0.973185 10:0.975472 
1 1:0.95736 2:0.985992 3:0.93846 4:0.993428 5:0.957943 6:0.929505 7:0.971491 8:0.921923 9:0.997459 10:0.944742 
1 1:0.891627 2:0.903928 3:0.964847 4:0.924369 5:0.997032 6:0.977576 7:0.988555 8:0.989575 9:0.956528 10:0.983066 
1 1:0.933721 2:0.996619 3:0.880658 4:0.945929 5:0.963454 6:0.976955 7:0.973022 8:0.982158 9:0.962228 10:0.979541 
1 1:0.978362 2:0.972648 3:0.990858 4:0.901967 5:0.917618 6:0.994871 7:0.95466 8:0.967734 9:0.928984 10:0.955973 
1 1:0.966246 2:0.972367 3:0.900201 4:0.947239 5:0.98731 6:0.947235 7:0.932843 8:0.942657 9:0.994939 10:0.989476 
1 1:0.865792 2:0.92211 3:0.966755 4:0.96999 5:0.927576 6:0.988097 7:0.940971 8:0.995232 9:0.973552 10:0.978877 
1 1:0.893343 2:0.975993 3:0.984134 4:0.960217 5:0.954624 6:0.914227 7:0.928569 8:0.977949 9:0.936113 10:0.997258 
1 1:0.930313 2:0.975242 3:0.996433 4:0.904979 5:0.978661 6:0.961332 7:0.924047 8:0.937247 9:0.929786 10:0.936623 
1 1:0.845812 2:0.961445 3:0.994902 4:0.928722 5:0.955907 6:0.985006 7:0.923201 8:0.955207 9:0.97716 10:0.940979 
1 1:0.862385 2:0.949068 3:0.970833 4:0.982687 5:0.925025 6:0.95295 7:0.975959 8:0.935251 9:0.95421 10:0.99552 
1 1:0.841304 2:0.920304 3:0.995864 4:0.889284 5:0.992081 6:0.979269 7:0.999411 8:0.956518 9:0.982283 10:0.943701 
1 1:0.94772 2:0.997704 3:0.984508 4:0.955306 5:0.972436 6:0.928998 7:0.997693 8:0.962954 9:0.933141 10:0.936269 
1 1:0.978172 2:0.945153 3:0.974353 4:0.911608 5:0.944861 6:0.937901 7:0.921203 8:0.984255 9:0.962555 10:0.996196 
1 1:0.898041 2:0.857173 3:0.925067 4:0.950465 5:0.985897 6:0.998863 7:0.916696 8:0.976395 9:0.972935 10:0.971778 
1 1:0.874955 2:0.996157 3:0.92521 4:0.951923 5:0.993737 6:0.91292 7:0.929956 8:0.989849 9:0.997691 10:0.98634 
1 1:0.999087 2:0.988794 3:0.980998 4:0.998392 5:0.904474 6:0.965298 7:0.961228 8:0.945666 9:0.988884 10:0.969686 
1 1:0.951968 2:0.955432 3:0.958183 4:0.985161 5:0.990205 6:0.947375 7:0.998918 8:0.949653 9:0.959014 10:0.988649 
1 1:0.857924 2:0.97571 3:0.928859 4:0.893357 5:0.99307 6:0.927966 7:0.995233 8:0.967093 9:0.955997 10:0.954298 
1 1:0.895739 2:0.992832 3:0.919186 4:0.975291 5:0.942582 6:0.916252 7:0.977868 8:0.970624 9:0.957768 10:0.96522 
1 1:0.994043 2:0.968438 3:0.921846 4:0.898598 5:0.918183 6:0.967438 7:0.937761 8:0.998775 9:0.945433 10:0.958363 
1 1:0.991731 2:0.96285 3:0.91122 4:0.918053 5:0.911478 6:0.985319 7:0.922392 8:0.936703 9:0.967652 10:0.988205 
1 1:0.954967 2:0.916855 3:0.966301 4:0.983225 5:0.898186 6:0.920329 7:0.917316 8:0.991426 9:0.935741 10:0.994125 
1 1:0.995816 2:0.901957 3:0.944934 4:0.915356 5:0.980187 6:0.919542 7:0.970015 8:0.984871 9:0.949011 10:0.989226 
1 1:0.929549 2:0.910505 3:0.943366 4:0.894792 5:0.983132 6:0.990476 7:0.972667 8:0.978285 9:0.990032 10:0.946259 
1 1:0.856561 2:0.859037 3:0.87933 4:0.983079 5:0.950217 6:0.978401 7:0.994002 8:0.99218 9:0.948738 10:0.982353 
1 1:0.907912 2:0.924089 3:0.924142 4:0.946632 5:0.996004 6:0.998745 7:0.991988 8:0.946185 9:0.932882 10:0.945211 
1 1:0.91371 2:0.930691 3:0.886052 4:0.984891 5:0.974593 6:0.999197 7:0.971882 8:0.95379 9:0.98982 10:0.972947 
1 1:0.997275 2:0.967742 3:0.913971 4:0.895885 5:0.937415 6:0.964765 7:0.953543 8:0.934921 9:0.982519 10:0.988477 
1 1:0.977063 2:0.918133 3:0.941365 4:0.900185 5:0.926917 6:0.945685 7:0.955896 8:0.950999 9:0.997016 10:0.986905 
1 1:0.96128 2:0.901935 3:0.98861 4:0.92011 5:0.989193 6:0.971652 7:0.961022 8:0.994283 9:0.995832 10:0.960096 
1 1:0.958869 2:0.96705 3:0.984263 4:0.886856 5:0.966424 6:0.964194 7:0.952764 8:0.925604 9:0.967381 10:0.983136 
1 1:0.988724 2:0.94631 3:0.953609 4:0.988265 5:0.943174 6:0.945218 7:0.914961 8:0.928271 9:0.957896 10:0.958642 
1 1:0.87669 2:0.936487 3:0.955628 4:0.966146 5:0.988892 6:0.908402 7:0.980604 8:0.936562 9:0.976409 10:0.969056 
1 1:0.997105 2:0.960708 3:0.910486 4:0.935492 5:0.94785 6:0.979423 7:0.956297 8:0.981309 9:0.979579 10:0.963157 
1 1:0.985802 2:0.938235 3:0.904361 4:0.956127 5:0.971698 6:0.925178 7:0.932972 8:0.994076 9:0.938652 10:0.986902 
1 1:0.952908 2:0.945732 3:0.972405 4:0.911494 5:0.940602 6:0.983978 7:0.925697 8:0.968018 9:0.996501 10:0.974856 
1 1:0.997534 2:0.854518 3:0.954625 4:0.965465 5:0.986962 6:0.973595 7:0.962384 8:0.9548 9:0.932651 10:0.943122 
1 1:0.974895 2:0.918672 3:0.934286 4:0.970406 5:0.920163 6:0.936792 7:0.990187 8:0.934987 9:0.968451 10:0.987064 
1 1:0.881187 2:0.859701 3:0.999019 4:0.955356 5:0.996649 6:0.917822 7:0.986442 8:0.963744 9:0.983387 10:0.935993 
1 1:0.972052 2:0.886968 3:0.992246 4:0.913918 5:0.952134 6:0.98006 7:0.968048 8:0.974353 9:0.940503 10:0.987256 
1 1:0.892495 2:0.930336 3:0.926657 4:0.996561 5:0.948147 6:0.973907 7:0.962339 8:0.95848 9:0.990613 10:0.944894 
1 1:0.960717 2:0.894623 3:0.991336 4:0.943906 5:0.93669 6:0.939459 7:0.957064 8:0.982989 9:0.999945 10:0.985335 
1 1:0.85725 2:0.998236 3:0.877467 4:0.940884 5:0.90989 6:0.955407 7:0.950139 8:0.988268 9:0.999667 10:0.964661 
1 1:0.978294 2:0.923611 3:0.897966 4:0.993592 5:0.944318 6:0.931892 7:0.995547 8:0.971176 9:0.939245 10:0.985572 
1 1:0.919817 2:0.972829 3:0.883853 4:0.946489 5:0.985632 6:0.935327 7:0.955098 8:0.988968 9:0.957305 10:0.988191 
1 1:0.991536 2:0.993219 3:0.927787 4:0.951345 5:0.930579 6:0.913788 7:0.921277 8:0.939048 9:0.995821 10:0.947711 
1 1:0.835517 2:0.979742 3:0.879656 4:0.980563 5:0.986679 6:0.96769 7:0.936327 8:0.951923 9:0.963435 10:0.936994 
1 1:0.980268 2:0.990652 3:0.898356 4:0.94474 5:0.980575 6:0.921436 7:0.946652 8:0.959324 9:0.965659 10:0.958 
1 1:0.892952 2:0.890687 3:0.982488 4:0.979779 5:0.925563 6:0.948352 7:0.970701 8:0.989469 9:0.951501 10:0.965118 
1 1:0.939902 2:0.887407 3:0.966686 4:0.977267 5:0.966113 6:0.997673 7:0.925542 8:0.938303 9:0.95517 10:0.938814 
1 1:0.858913 2:0.866112 3:0.996168 4:0.895986 5:0.979445 6:0.942514 7:0.929359 8:0.949128 9:0.991176 10:0.998534 
1 1:0.945518 2:0.866861 3:0.956766 4:0.914981 5:0.996639 6:0.983071 7:0.926418 8:0.963064 9:0.996599 10:0.952281 
1 1:0.861563 2:0.97903 3:0.889263 4:0.997179 5:0.994997 6:0.975339 7:0.995517 8:0.984732 9:0.931985 10:0.963408 
1 1:0.968431 2:0.973035 3:0.891145 4:0.906475 5:0.958327 6:0.988965 7:0.971805 8:0.949596 9:0.996413 10:0.97461 
1 1:0.94345 2:0.957396 3:0.972231 4:0.896967 5:0.986357 6:0.928163 7:0.992287 8:0.95346 9:0.934309 10:0.967402 
1 1:0.862873 2:0.953885 3:0.929682 4:0.947311 5:0.977567 6:0.948425 7:0.952809 8:0.969173 9:0.987068 10:0.992785 
1 1:0.984568 2:0.88734 3:0.881246 4:0.999854 5:0.93982 6:0.963988 7:0.951082 8:0.9286 9:0.966872 10:0.98336 
1 1:0.947459 2:0.910081 3:0.977343 4:0.9815 5:0.984347 6:0.914447 7:0.965233 8:0.939418 9:0.969637 10:0.987338 
1 1:0.963022 2:0.945893 3:0.991062 4:0.958631 5:0.964606 6:0.974388 7:0.947346 8:0.984508 9:0.971845 10:0.956645 
1 1:0.97128 2:0.990437 3:0.951341 4:0.922299 5:0.976526 6:0.993242 7:0.915521 8:0.990036 9:0.972653 10:0.982228 
1 1:0.885324 2:0.969425 3:0.913741 4:0.902736 5:0.990478 6:0.957684 7:0.945913 8:0.963425 9:0.994969 10:0.982901 
1 1:0.850219 2:0.960061 3:0.987617 4:0.962032 5:0.958251 6:0.961446 7:0.952031 8:0.947671 9:0.932737 10:0.975802 
1 1:0.973119 2:0.914923 3:0.992484 4:0.928225 5:0.945593 6:0.953258 7:0.967279 8:0.95628 9:0.995428 10:0.994244 
1 1:0.860024 2:0.873072 3:0.994752 4:0.999502 5:0.906524 6:0.98475 7:0.974054 8:0.982106 9:0.968096 10:0.96748 
1 1:0.852215 2:0.966269 3:0.993173 4:0.952212 5:0.987987 6:0.994326 7:0.997257 8:0.965087 9:0.968479 10:0.996057 
1 1:0.995044 2:0.991067 3:0.908858 4:0.928167 5:0.910982 6:0.978152 7:0.966387 8:0.926372 9:0.990598 10:0.965073 
1 1:0.993675 2:0.878293 3:0.9453 4:0.969225 5:0.986917 6:0.97389 7:0.926103 8:0.988606 9:0.970483 10:0.972598 
1 1:0.948677 2:0.956517 3:0.891837 4:0.953653 5:0.995258 6:0.982255 7:0.928725 8:0.926307 9:0.967301 10:0.952315 
1 1:0.83328 2:0.986021 3:0.872772 4:0.903852 5:0.944099 6:0.994399 7:0.959417 8:0.977878 9:0.970154 10:0.989976 
1 1:0.927051 2:0.947199 3:0.95519 4:0.955074 5:0.966126 6:0.962119 7:0.993893 8:0.974551 9:0.969687 10:0.971487 
1 1:0.917553 2:0.971552 3:0.91993 4:0.93159 5:0.996153 6:0.933347 7:0.927865 8:0.999201 9:0.955027 10:0.970501 
1 1:0.876848 2:0.870324 3:0.993617 4:0.918758 5:0.976478 6:0.998965 7:0.988241 8:0.971914 9:0.996531 10:0.972915 
1 1:0.969079 2:0.992223 3:0.912812 4:0.963372 5:0.992086 6:0.978987 7:0.961177 8:0.968939 9:0.99289 10:0.96203 
1 1:0.98285 2:0.976594 3:0.967997 4:0.925734 5:0.993174 6:0.957749 7:0.948844 8:0.996373 9:0.994437 10:0.975053 
1 1:0.981795 2:0.919643 3:0.975657 4:0.981125 5:0.996744 6:0.925465 7:0.952687 8:0.941828 9:0.971677 10:0.945522 
1 1:0.980126 2:0.93492 3:0.906815 4:0.923845 5:0.962662 6:0.956204 7:0.986684 8:0.924489 9:0.982033 10:0.986621 
1 1:0.864932 2:0.944962 3:0.919146 4:0.976691 5:0.902206 6:0.984471 7:0.972261 8:0.998258 9:0.98937 10:0.980076 
1 1:0.988488 2:0.920841 3:0.882085 4:0.942987 5:0.950094 6:0.991379 7:0.985268 8:0.99215 9:0.972667 10:0.974165 
1 1:0.933642 2:0.858121 3:0.954077 4:0.917439 5:0.946666 6:0.994784 7:0.947699 8:0.981919 9:0.939215 10:0.998252 
1 1:0.991724 2:0.902396 3:0.987066 4:0.894117 5:0.980402 6:0.943084 7:0.927159 8:0.967258 9:0.99998 10:0.992928 
1 1:0.994706 2:0.953923 3:0.881879 4:0.984618 5:0.962454 6:0.911321 7:0.98135 8:0.980762 9:0.981227 10:0.990589 
1 1:0.924455 2:0.964496 3:0.890696 4:0.977735 5:0.906521 6:0.972135 7:0.949534 8:0.937651 9:0.985131 10:0.988029 
1 1:0.837435 2:0.90218 3:0.977067 4:0.922731 5:0.904966 6:0.993509 7:0.96339 8:0.993875 9:0.997459 10:0.950053 
1 1:0.948943 2:0.979691 3:0.959153 4:0.95478 5:0.978504 6:0.958793 7:0.997553 8:0.971123 9:0.996861 10:0.955524 
1 1:0.987894 2:0.87723 3:0.889152 4:0.88586 5:0.917893 6:0.964888 7:0.97727 8:0.98969 9:0.932689 10:0.989059 
1 1:0.950754 2:0.989418 3:0.896764 4:0.925375 5:0.990738 6:0.990633 7:0.986781 8:0.955645 9:0.945207 10:0.94913 
1 1:0.912134 2:0.89798 3:0.888964 4:0.993174 5:0.90847 6:0.982771 7:0.998551 8:0.977476 9:0.962029 10:0.941625 
1 1:0.868006 2:0.986818 3:0.909505 4:0.89234 5:0.907956 6:0.969273 7:0.9981 8:0.971117 9:0.999186 10:0.943226 
1 1:0.842693 2:0.928168 3:0.920272 4:0.998328 5:0.955635 6:0.962134 7:0.967851 8:0.993686 9:0.955703 10:0.942197 
1 1:0.956704 2:0.894867 3:0.957208 4:0.972411 5:0.968006 6:0.992635 7:0.937492 8:0.975036 9:0.932017 10:0.982394 
1 1:0.979053 2:0.868769 3:0.92808 4:0.991552 5:0.972136 6:0.996297 7:0.94159 8:0.976416 9:0.936634 10:0.996583 
1 1:0.920668 2:0.885161 3:0.98644 4:0.950715 5:0.966529 6:0.95696 7:0.946544 8:0.925466 9:0.997878 10:0.973242 
1 1:0.946457 2:0.929878 3:0.886531 4:0.905706 5:0.963925 6:0.995054 7:0.989566 8:0.95213 9:0.982495 10:0.982515 
1 1:0.941646 2:0.957179 3:0.871962 4:0.927684 5:0.9921 6:0.950722 7:0.965435 8:0.989061 9:0.973505 10:0.937469 
1 1:0.978839 2:0.930631 3:0.961405 4:0.937793 5:0.966194 6:0.944743 7:0.928926 8:0.997141 9:0.942223 10:0.948212 
1 1:0.95937 2:0.941663 3:0.996758 4:0.905846 5:0.976428 6:0.940471 7:0.957173 8:0.929804 9:0.98348 10:0.969739 
1 1:0.924757 2:0.969202 3:0.97065 4:0.948216 5:0.923458 6:0.933154 7:0.959025 8:0.982178 9:0.995512 10:0.977327 
1 1:0.930294 2:0.986888 3:0.993535 4:0.992894 5:0.928707 6:0.965035 7:0.929882 8:0.95393 9:0.947625 10:0.942679 
1 1:0.952477 2:0.869152 3:0.92163 4:0.91837 5:0.991757 6:0.996984 7:0.918192 8:0.931019 9:0.973494 10:0.97982 
1 1:0.93166 2:0.997666 3:0.912934 4:0.945908 5:0.963015 6:0.939475 7:0.952559 8:0.956256 9:0.963712 10:0.974513 
1 1:0.981464 2:0.975246 3:0.935227 4:0.913094 5:0.940015 6:0.991753 7:0.976971 8:0.998123 9:0.952323 10:0.96032 
1 1:0.904555 2:0.96122 3:0.876106 4:0.9611 5:0.905855 6:0.95228 7:0.998691 8:0.953393 9:0.992745 10:0.974878 
1 1:0.971332 2:0.881052 3:0.960003 4:0.933175 5:0.95126 6:0.998687 7:0.947358 8:0.994775 9:0.988412 10:0.936507 
1 1:0.886798 2:0.958951 3:0.965691 4:0.967899 5:0.914904 6:0.986203 7:0.989151 8:0.968578 9:0.996661 10:0.932964 
1 1:0.939566 2:0.875838 3:0.879156 4:0.96316 5:0.996314 6:0.951866 7:0.955027 8:0.992395 9:0.9798 10:0.933117 
1 1:0.908468 2:0.941379 3:0.880576 4:0.998562 5:0.931513 6:0.98529 7:0.978249 8:0.945784 9:0.971287 10:0.950914 
1 1:0.987483 2:0.911722 3:0.974068 4:0.975263 5:0.945948 6:0.933451 7:0.966936 8:0.966171 9:0.975184 10:0.954132 
1 1:0.928808 2:0.940155 3:0.901433 4:0.98723 5:0.96046 6:0.968323 7:0.938872 8:0.990262 9:0.964766 10:0.955654 
1 1:0.936676 2:0.949349 3:0.996339 4:0.971588 5:0.958886 6:0.946475 7:0.96043 8:0.923355 9:0.970479 10:0.988429 
1 1:0.856629 2:0.869586 3:0.911956 4:0.96734 5:0.980038 6:0.950148 7:0.981038 8:0.969647 9:0.996194 10:0.998693 
1 1:0.843798 2:0.89812 3:0.990498 4:0.98938 5:0.996816 6:0.993999 7:0.969447 8:0.982776 9:0.970059 10:0.933859 
1 1:0.891407 2:0.878694 3:0.979014 4:0.909311 5:0.982717 6:0.996994 7:0.974428 8:0.956988 9:0.991104 10:0.951937 
1 1:0.983065 2:0.943426 3:0.872635 4:0.91843 5:0.906438 6:0.946986 7:0.942631 8:0.956722 9:0.990636 10:0.990383 
1 1:0.950213 2:0.875477 3:0.971933 4:0.908913 5:0.967921 6:0.978451 7:0.955041 8:0.947278 9:0.997673 10:0.948746 
1 1:0.868822 2:0.958637 3:0.949066 4:0.949453 5:0.974376 6:0.957096 7:0.961714 8:0.955751 9:0.999392 10:0.960848 
1 1:0.995411 2:0.974212 3:0.914417 4:0.997587 5:0.905721 6:0.981945 7:0.958399 8:0.963558 9:0.948569 10:0.977051 
1 1:0.961662 2:0.895225 3:0.937318 4:0.978934 5:0.922104 6:0.917059 7:0.984824 8:0.977694 9:0.980488 10:0.963366 
1 1:0.943584 2:0.959792 3:0.922111 4:0.974277 5:0.988405 6:0.970256 7:0.938798 8:0.95628 9:0.997233 10:0.941922 
1 1:0.881453 2:0.93639 3:0.930826 4:0.951868 5:0.984648 6:0.96356 7:0.996979 8:0.996323 9:0.991806 10:0.972281 
1 1:0.88931 2:0.902218 3:0.977455 4:0.950288 5:0.975945 6:0.932321 7:0.986719 8:0.965839 9:0.97219 10:0.98376 
1 1:0.915892 2:0.986452 3:0.976859 4:0.973747 5:0.982805 6:0.925466 7:0.998863 8:0.98806 9:0.982311 10:0.983038 
1 1:0.926953 2:0.986262 3:0.97888 4:0.89283 5:0.997903 6:0.968208 7:0.926001 8:0.929416 9:0.945878 10:0.997485 
1 1:0.935515 2:0.999518 3:0.986175 4:0.921361 5:0.898184 6:0.919961 7:0.982197 8:0.936885 9:0.984692 10:0.992487 
1 1:0.843261 2:0.967236 3:0.975276 4:0.904113 5:0.992874 6:0.910313 7:0.962524 8:0.979909 9:0.998705 10:0.938697 
1 1:0.96105 2:0.936126 3:0.908243 4:0.959935 5:0.987101 6:0.950834 7:0.982824 8:0.92193 9:0.950732 10:0.9827 
1 1:0.990919 2:0.9301 3:0.986583 4:0.887657 5:0.968448 6:0.998627 7:0.983667 8:0.944284 9:0.971263 10:0.980495 
1 1:0.830409 2:0.948897 3:0.973624 4:0.9763 5:0.966108 6:0.981095 7:0.991707 8:0.969882 9:0.994866 10:0.983168 
1 1:0.965754 2:0.966957 3:0.974704 4:0.940214 5:0.945698 6:0.976453 7:0.960136 8:0.978778 9:0.934536 10:0.944284 
1 1:0.838105 2:0.909561 3:0.959465 4:0.988125 5:0.974889 6:0.936211 7:0.946688 8:0.997044 9:0.961523 10:0.932569 
1 1:0.899452 2:0.968771 3:0.897664 4:0.947652 5:0.97323 6:0.970297 7:0.924985 8:0.99552 9:0.98268 10:0.989064 
1 1:0.845075 2:0.943727 3:0.966339 4:0.984916 5:0.976994 6:0.981963 7:0.971723 8:0.932242 9:0.932781 10:0.982484 
1 1:0.990396 2:0.862105 3:0.949184 4:0.932082 5:0.968885 6:0.959785 7:0.98631 8:0.994757 9:0.986811 10:0.984096 
1 1:0.961772 2:0.876426 3:0.872097 4:0.999329 5:0.907849 6:0.970733 7:0.926386 8:0.988737 9:0.991326 10:0.980916 
1 1:0.844219 2:0.976314 3:0.986374 4:0.958268 5:0.987335 6:0.985283 7:0.972446 8:0.922719 9:0.960053 10:0.952072 
1 1:0.968168 2:0.947809 3:0.960928 4:0.999537 5:0.93138 6:0.912607 7:0.955775 8:0.993212 9:0.930444 10:0.980718 
1 1:0.966993 2:0.976021 3:0.940443 4:0.952867 5:0.988121 6:0.956013 7:0.942953 8:0.981062 9:0.944442 10:0.978382 
1 1:0.935769 2:0.936776 3:0.926405 4:0.958516 5:0.92537 6:0.981267 7:0.984661 8:0.995583 9:0.929506 10:0.987671 
1 1:0.848618 2:0.998825 3:0.983604 4:0.891303 5:0.921228 6:0.907139 7:0.964224 8:0.966732 9:0.987876 10:0.997479 
1 1:0.982356 2:0.892216 3:0.953597 4:0.890478 5:0.98719 6:0.956788 7:0.961027 8:0.93621 9:0.971669 10:0.951032 
1 1:0.960697 2:0.864867 3:0.893988 4:0.904061 5:0.945206 6:0.994854 7:0.977797 8:0.983742 9:0.930758 10:0.999483 
1 1:0.850655 2:0.99656 3:0.93287 4:0.983117 5:0.97023 6:0.932373 7:0.921266 8:0.979424 9:0.977808 10:0.967789 
1 1:0.954296 2:0.954718 3:0.969657 4:0.98018 5:0.941183 6:0.983822 7:0.946011 8:0.98904 9:0.934925 10:0.933703 
1 1:0.962311 2:0.983299 3:0.972283 4:0.940618 5:0.957343 6:0.977348 7:0.932023 8:0.932415 9:0.972677 10:0.933244 
1 1:0.915037 2:0.944222 3:0.946642 4:0.933956 5:0.977912 6:0.972026 7:0.984472 8:0.954451 9:0.970363 10:0.979961 
1 1:0.993803 2:0.930081 3:0.904391 4:0.945283 5:0.977939 6:0.971215 7:0.92686 8:0.938112 9:0.934564 10:0.988413 
1 1:0.879229 2:0.936898 3:0.894557 4:0.978028 5:0.976841 6:0.987692 7:0.928521 8:0.961066 9:0.994981 10:0.973812 
1 1:0.829683 2:0.904481 3:0.947078 4:0.996971 5:0.988327 6:0.993704 7:0.951064 8:0.930661 9:0.967621 10:0.947873 
1 1:0.964181 2:0.931341 3:0.98688 4:0.987971 5:0.97729 6:0.966394 7:0.996756 8:0.924598 9:0.95723 10:0.94162 
1 1:0.957367 2:0.95613 3:0.937426 4:0.961011 5:0.900257 6:0.954912 7:0.92534 8:0.965421 9:0.998292 10:0.97685 
1 1:0.925628 2:0.855679 3:0.975055 4:0.997818 5:0.963369 6:0.961445 7:0.96644 8:0.940353 9:0.971303 10:0.992434 
1 1:0.979904 2:0.887331 3:0.880197 4:0.998214 5:0.905417 6:0.998279 7:0.957927 8:0.951789 9:0.97527 10:0.985797 
1 1:0.962932 2:0.956283 3:0.90584 4:0.971796 5:0.913123 6:0.960625 7:0.967424 8:0.994923 9:0.972236 10:0.963092 
1 1:0.938984 2:0.857833 3:0.972138 4:0.892204 5:0.901034 6:0.910018 7:0.986306 8:0.998446 9:0.978032 10:0.986398 
1 1:0.83178 2:0.872386 3:0.988633 4:0.960157 5:0.93313 6:0.987652 7:0.941851 8:0.966061 9:0.958885 10:0.996412 
1 1:0.991645 2:0.928563 3:0.912196 4:0.980814 5:0.984506 6:0.960835 7:0.944384 8:0.931323 9:0.943397 10:0.96328 
1 1:0.882607 2:0.893462 3:0.968946 4:0.972906 5:0.973182 6:0.958756 7:0.98446 8:0.94013 9:0.983071 10:0.958928 
1 1:0.896777 2:0.913539 3:0.937517 4:0.981888 5:0.953916 6:0.933761 7:0.991963 8:0.975838 9:0.976708 10:0.994787 
1 1:0.978714 2:0.962453 3:0.874976 4:0.98647 5:0.90062 6:0.976387 7:0.944135 8:0.95535 9:0.995076 10:0.951731 
1 1:0.955988 2:0.956899 3:0.953471 4:0.999831 5:0.955472 6:0.950729 7:0.936102 8:0.966514 9:0.964484 10:0.940487 
1 1:0.848077 2:0.941385 3:0.964334 4:0.957763 5:0.960244 6:0.923035 7:0.983015 8:0.982649 9:0.962959 10:0.962776 
1 1:0.874699 2:0.975482 3:0.894697 4:0.936811 5:0.984262 6:0.9928 7:0.979328 8:0.930919 9:0.963839 10:0.994442 
1 1:0.946647 2:0.980585 3:0.917224 4:0.925969 5:0.986266 6:0.957612 7:0.97725 8:0.930429 9:0.956121 10:0.954332 
1 1:0.962468 2:0.950888 3:0.972924 4:0.978901 5:0.934079 6:0.988495 7:0.974503 8:0.923386 9:0.999253 10:0.93741 
1 1:0.833659 2:0.993211 3:0.932375 4:0.96747 5:0.899927 6:0.972173 7:0.917048 8:0.94442 9:0.997582 10:0.992496 
1 1:0.865219 2:0.987906 3:0.990849 4:0.945944 5:0.998854 6:0.97154 7:0.980674 8:0.934913 9:0.955436 10:0.95246 
1 1:0.841138 2:0.998185 3:0.949667 4:0.998935 5:0.910483 6:0.911802 7:0.9937 8:0.992875 9:0.938486 10:0.977775 
1 1:0.997465 2:0.94953 3:0.975736 4:0.929251 5:0.920752 6:0.926058 7:0.974467 8:0.941867 9:0.936496 10:0.951334 
1 1:0.961797 2:0.9371 3:0.984909 4:0.93582 5:0.995569 6:0.944673 7:0.999884 8:0.951106 9:0.937622 10:0.970596 
1 1:0.968197 2:0.97223 3:0.985682 4:0.885991 5:0.962319 6:0.957596 7:0.941225 8:0.969484 9:1 10:0.99859 
1 1:0.987479 2:0.936418 3:0.979592 4:0.912314 5:0.942832 6:0.934429 7:0.947235 8:0.937387 9:0.944969 10:0.981439 
1 1:0.949017 2:0.892241 3:0.937427 4:0.91576 5:0.972203 6:0.98976 7:0.983751 8:0.951713 9:0.989943 10:0.937185 
1 1:0.846097 2:0.896262 3:0.998672 4:0.952776 5:0.936832 6:0.908601 7:0.989827 8:0.967305 9:0.951415 10:0.994172 
1 1:0.93503 2:0.927601 3:0.964588 4:0.939375 5:0.973983 6:0.974294 7:0.94291 8:0.97062 9:0.992582 10:0.960813 
1 1:0.879455 2:0.898334 3:0.950545 4:0.966717 5:0.985782 6:0.986751 7:0.999229 8:0.990546 9:0.94125 10:0.968143 
1 1:0.985083 2:0.898807 3:0.942488 4:0.99841 5:0.937166 6:0.981905 7:0.988045 8:0.953372 9:0.934117 10:0.938316 
1 1:0.979385 2:0.863925 3:0.995016 4:0.988073 5:0.932728 6:0.994184 7:0.96546 8:0.989447 9:0.969187 10:0.987521 
1 1:0.840688 2:0.964185 3:0.970333 4:0.988192 5:0.899878 6:0.94013 7:0.977917 8:0.93178 9:0.976215 10:0.960238 
1 1:0.983765 2:0.91485 3:0.953819 4:0.996148 5:0.959192 6:0.964531 7:0.940046 8:0.941853 9:0.979429 10:0.967351 
1 1:-0.721159 2:-0.967629 3:-0.944897 4:-0.831692 5:-0.839233 6:-0.846774 7:-0.94494 8:-0.940361 9:-0.91659 10:-0.992771 
1 1:-0.749711 2:-0.963431 3:-0.920015 4:-0.917994 5:-0.936137 6:-0.884135 7:-0.972064 8:-0.90846 9:-0.963013 10:-0.976616 
1 1:-0.939203 2:-0.853319 3:-0.762719 4:-0.805291 5:-0.869652 6:-0.955336 7:-0.98557 8:-0.926568 9:-0.982996 10:-0.98492 
1 1:-0.951285 2:-0.898358 3:-0.901836 4:-0.962222 5:-0.802675 6:-0.981533 7:-0.957083 8:-0.953597 9:-0.8553 10:-0.926622 
1 1:-0.937331 2:-0.966209 3:-0.915565 4:-0.926683 5:-0.867704 6:-0.83147 7:-0.996577 8:-0.997697 9:-0.955307 10:-0.969473 
1 1:-0.673922 2:-0.80795 3:-0.86654 4:-0.895941 5:-0.905858 6:-0.949532 7:-0.883954 8:-0.997396 9:-0.957579 10:-0.994188 
1 1:-0.929384 2:-0.915771 3:-0.789084 4:-0.798693 5:-0.857633 6:-0.990759 7:-0.982984 8:-0.869309 9:-0.918257 10:-0.902233 
1 1:-0.954111 2:-0.733417 3:-0.88638 4:-0.870107 5:-0.80311 6:-0.823791 7:-0.957717 8:-0.979033 9:-0.908578 10:-0.961217 
1 1:-0.99606 2:-0.780565 3:-0.924831 4:-0.776075 5:-0.824134 6:-0.820854 7:-0.930467 8:-0.919208 9:-0.896695 10:-0.90937 
1 1:-0.908722 2:-0.995506 3:-0.978367 4:-0.978878 5:-0.961169 6:-0.845218 7:-0.856382 8:-0.987427 9:-0.934603 10:-0.986339 
1 1:-0.681022 2:-0.733162 3:-0.835859 4:-0.972962 5:-0.924661 6:-0.94048 7:-0.94681 8:-0.846339 9:-0.995769 10:-0.985562 
1 1:-0.721198 2:-0.946168 3:-0.894656 4:-0.945421 5:-0.921241 6:-0.8808 7:-0.887571 8:-0.991767 9:-0.967513 10:-0.903168 
1 1:-0.919621 2:-0.821618 3:-0.967013 4:-0.973119 5:-0.864037 6:-0.875183 7:-0.877698 8:-0.981185 9:-0.957464 10:-0.962954 
1 1:-0.823343 2:-0.789159 3:-0.998425 4:-0.914243 5:-0.901792 6:-0.99245 7:-0.875519 8:-0.952993 9:-0.900102 10:-0.916008 
1 1:-0.910703 2:-0.781645 3:-0.79234 4:-0.960301 5:-0.915815 6:-0.995112 7:-0.931511 8:-0.972046 9:-0.983141 10:-0.964992 
1 1:-0.849863 2:-0.725435 3:-0.745506 4:-0.864914 5:-0.933226 6:-0.82901 7:-0.990407 8:-0.848361 9:-0.999627 10:-0.997769 
1 1:-0.821045 2:-0.956944 3:-0.907516 4:-0.828703 5:-0.938923 6:-0.943643 7:-0.974108 8:-0.924832 9:-0.998843 10:-0.972328 
1 1:-0.976578 2:-0.924634 3:-0.802993 4:-0.953207 5:-0.980254 6:-0.97526 7:-0.946269 8:-0.878652 9:-0.997054 10:-0.962321 
1 1:-0.981566 2:-0.988511 3:-0.884425 4:-0.965209 5:-0.92101 6:-0.835674 7:-0.833633 8:-0.854937 9:-0.910503 10:-0.87848 
1 1:-0.665597 2:-0.950232 3:-0.894669 4:-0.884119 5:-0.904597 6:-0.865151 7:-0.908446 8:-0.903555 9:-0.977118 10:-0.945133 
1 1:-0.828901 2:-0.959201 3:-0.939857 4:-0.959535 5:-0.971122 6:-0.909685 7:-0.867126 8:-0.93499 9:-0.97378 10:-0.887982 
1 1:-0.764546 2:-0.986261 3:-0.89529 4:-0.840821 5:-0.928333 6:-0.892728 7:-0.91977 8:-0.880208 9:-0.945666 10:-0.994286 
1 1:-0.670055 2:-0.725698 3:-0.884319 4:-0.808157 5:-0.966854 6:-0.986072 7:-0.940516 8:-0.897271 9:-0.969376 10:-0.895342 
1 1:-0.926134 2:-0.809815 3:-0.898442 4:-0.991594 5:-0.962581 6:-0.9175 7:-0.955036 8:-0.888895 9:-0.928455 10:-0.87722 
1 1:-0.926322 2:-0.870712 3:-0.90222 4:-0.992018 5:-0.841668 6:-0.847513 7:-0.907062 8:-0.900721 9:-0.992186 10:-0.913924 
1 1:-0.672761 2:-0.855453 3:-0.987764 4:-0.829465 5:-0.886125 6:-0.911857 7:-0.92518 8:-0.999715 9:-0.985576 10:-0.910354 
1 1:-0.986123 2:-0.802659 3:-0.97395 4:-0.965203 5:-0.970676 6:-0.907537 7:-0.932513 8:-0.922672 9:-0.892818 10:-0.919724 
1 1:-0.741801 2:-0.847742 3:-0.75547 4:-0.977609 5:-0.88464 6:-0.952023 7:-0.87866 8:-1 9:-0.968581 10:-0.928081 
1 1:-0.736234 2:-0.89961 3:-0.98314 4:-0.937227 5:-0.91543 6:-0.844853 7:-0.999335 8:-0.851501 9:-0.892224 10:-0.927166 
1 1:-0.995483 2:-0.834186 3:-0.753931 4:-0.9441 5:-0.817653 6:-0.930829 7:-0.915583 8:-0.994429 9:-0.924562 10:-0.884575 
1 1:-0.881691 2:-0.928277 3:-0.97555 4:-0.838174 5:-0.909137 6:-0.908021 7:-0.852759 8:-0.99322 9:-0.881937 10:-0.868894 
1 1:-0.907037 2:-0.706473 3:-0.811931 4:-0.928932 5:-0.933598 6:-0.953375 7:-0.907212 8:-0.949062 9:-0.972188 10:-0.957071 
1 1:-0.954439 2:-0.959313 3:-0.987595 4:-0.89045 5:-0.923574 6:-0.870224 7:-0.900966 8:-0.962495 9:-0.967146 10:-0.93948 
1 1:-0.982261 2:-0.923574 3:-0.878401 4:-0.866116 5:-0.987861 6:-0.936891 7:-0.976953 8:-0.932362 9:-0.988624 10:-0.907387 
1 1:-0.76532 2:-0.983121 3:-0.789822 4:-0.809736 5:-0.965495 6:-0.869371 7:-0.964668 8:-0.977352 9:-0.977097 10:-0.866293 
1 1:-0.953238 2:-0.858231 3:-0.967061 4:-0.786661 5:-0.905489 6:-0.998064 7:-0.886098 8:-0.934527 9:-0.881924 10:-0.951791 
1 1:-0.938705 2:-0.941625 3:-0.774008 4:-0.8128 5:-0.864503 6:-0.938463 7:-0.925671 8:-0.868651 9:-0.973332 10:-0.95926 
1 1:-0.87732 2:-0.994252 3:-0.967809 4:-0.84748 5:-0.886625 6:-0.897135 7:-0.983434 8:-0.957215 9:-0.903413 10:-0.950608 
1 1:-0.926267 2:-0.929235 3:-0.963631 4:-0.995369 5:-0.855912 6:-0.854875 7:-0.954859 8:-0.850546 9:-0.957344 10:-0.942062 
1 1:-0.903402 2:-0.988349 3:-0.916734 4:-0.976731 5:-0.916483 6:-0.852149 7:-0.861398 8:-0.943818 9:-0.951931 10:-0.95566 
1 1:-0.728533 2:-0.98537 3:-0.842568 4:-0.78443 5:-0.999726 6:-0.985668 7:-0.934199 8:-0.911854 9:-0.865331 10:-0.949505 
1 1:-0.90948 2:-0.877359 3:-0.766066 4:-0.993781 5:-0.892887 6:-0.845536 7:-0.969751 8:-0.879337 9:-0.925926 10:-0.948476 
1 1:-0.968661 2:-0.964551 3:-0.892492 4:-0.859286 5:-0.843368 6:-0.983438 7:-0.987765 8:-0.979568 9:-0.87456 10:-0.986006 
1 1:-0.75765 2:-0.982546 3:-0.924883 4:-0.942766 5:-0.821515 6:-0.943007 7:-0.881616 8:-0.87634 9:-0.941236 10:-0.93211 
1 1:-0.981671 2:-0.795742 3:-0.949342 4:-0.968137 5:-0.859067 6:-0.861571 7:-0.95561 8:-0.889586 9:-0.983852 10:-0.926137 
1 1:-0.83733 2:-0.859906 3:-0.984882 4:-0.891186 5:-0.810068 6:-0.984091 7:-0.844196 8:-0.971319 9:-0.948854 10:-0.992366 
1 1:-0.993988 2:-0.828475 3:-0.935135 4:-0.962591 5:-0.841196 6:-0.843133 7:-0.969865 8:-0.915551 9:-0.985431 10:-0.96601 
1 1:-0.949156 2:-0.978862 3:-0.95319 4:-0.921843 5:-0.982276 6:-0.831453 7:-0.936333 8:-0.972182 9:-0.888788 10:-0.905183 
1 1:-0.989865 2:-0.934727 3:-0.856965 4:-0.949565 5:-0.848292 6:-0.906212 7:-0.993892 8:-0.879527 9:-0.954077 10:-0.940031 
1 1:-0.950412 2:-0.718238 3:-0.940964 4:-0.880568 5:-0.973598 6:-0.960304 7:-0.936931 8:-0.853585 9:-0.923775 10:-0.97525 
1 1:-0.994663 2:-0.880666 3:-0.762968 4:-0.873511 5:-0.892062 6:-0.842379 7:-0.846821 8:-0.894197 9:-0.992419 10:-0.875788 
1 1:-0.937165 2:-0.885122 3:-0.969562 4:-0.814075 5:-0.963483 6:-0.926658 7:-0.901968 8:-0.938997 9:-0.884645 10:-0.981157 
1 1:-0.986533 2:-0.717326 3:-0.834949 4:-0.977892 5:-0.921711 6:-0.970953 7:-0.921433 8:-0.911564 9:-0.955839 10:-0.990368 
1 1:-0.774199 2:-0.81211 3:-0.989101 4:-0.893825 5:-0.917898 6:-0.981693 7:-0.884623 8:-0.942821 9:-0.957041 10:-0.945217 
1 1:-0.968436 2:-0.903904 3:-0.935518 4:-0.782443 5:-0.822622 6:-0.985596 7:-0.951079 8:-0.932575 9:-0.95926 10:-0.993009 
1 1:-0.86696 2:-0.890887 3:-0.803573 4:-0.961303 5:-0.998394 6:-0.818613 7:-0.987125 8:-0.93126 9:-0.871354 10:-0.991779 
1 1:-0.849313 2:-0.910722 3:-0.898389 4:-0.868858 5:-0.981115 6:-0.99368 7:-0.873453 8:-0.847361 9:-0.882414 10:-0.993572 
1 1:-0.946037 2:-0.902505 3:-0.955671 4:-0.943154 5:-0.802929 6:-0.906315 7:-0.94106 8:-0.873012 9:-0.963654 10:-0.974415 
1 1:-0.959779 2:-0.872801 3:-0.98867 4:-0.839297 5:-0.959029 6:-0.842561 7:-0.862889 8:-0.898452 9:-0.917006 10:-0.881293 
1 1:-0.754368 2:-0.970607 3:-0.915377 4:-0.962701 5:-0.849564 6:-0.814244 7:-0.940996 8:-0.989649 9:-0.912284 10:-0.921404 
1 1:-0.996885 2:-0.79182 3:-0.89502 4:-0.942464 5:-0.836247 6:-0.914603 7:-0.951095 8:-0.962983 9:-0.87819 10:-0.871725 
1 1:-0.675753 2:-0.815239 3:-0.917124 4:-0.97412 5:-0.902054 6:-0.833558 7:-0.843232 8:-0.850112 9:-0.970939 10:-0.98126 
1 1:-0.806389 2:-0.722583 3:-0.817245 4:-0.947762 5:-0.932797 6:-0.991595 7:-0.902695 8:-0.949481 9:-0.902859 10:-0.993584 
1 1:-0.816672 2:-0.786547 3:-0.993882 4:-0.887538 5:-0.969175 6:-0.826784 7:-0.995939 8:-0.867238 9:-0.991536 10:-0.969029 
1 1:-0.960348 2:-0.906429 3:-0.772953 4:-0.980982 5:-0.943496 6:-0.844493 7:-0.918762 8:-0.883937 9:-0.87152 10:-0.906526 
1 1:-0.984109 2:-0.73806 3:-0.861488 4:-0.948124 5:-0.976567 6:-0.87526 7:-0.970194 8:-0.935246 9:-0.898787 10:-0.987201 
1 1:-0.8735 2:-0.951134 3:-0.927487 4:-0.90222 5:-0.997921 6:-0.996695 7:-0.84783 8:-0.876249 9:-0.885003 10:-0.942575 
1 1:-0.705576 2:-0.898858 3:-0.949116 4:-0.890976 5:-0.983672 6:-0.905672 7:-0.923943 8:-0.986285 9:-0.913082 10:-0.949805 
1 1:-0.98057 2:-0.932384 3:-0.7543 4:-0.964166 5:-0.820732 6:-0.92611 7:-0.972869 8:-0.893566 9:-0.893903 10:-0.983275 
1 1:-0.874015 2:-0.960641 3:-0.837239 4:-0.989884 5:-0.834869 6:-0.897373 7:-0.836449 8:-0.991918 9:-0.969355 10:-0.926235 
1 1:-0.938886 2:-0.800627 3:-0.943856 4:-0.776741 5:-0.969072 6:-0.841754 7:-0.987243 8:-0.947922 9:-0.979829 10:-0.902526 
1 1:-0.955924 2:-0.962055 3:-0.808394 4:-0.777845 5:-0.930517 6:-0.968695 7:-0.97688 8:-0.964117 9:-0.892686 10:-0.967256 
1 1:-0.995358 2:-0.964035 3:-0.979297 4:-0.786134 5:-0.925479 6:-0.970806 7:-0.903852 8:-0.888227 9:-0.952721 10:-0.936469 
1 1:-0.948616 2:-0.744809 3:-0.788199 4:-0.810902 5:-0.802474 6:-0.885866 7:-0.996272 8:-0.917096 9:-0.9863 10:-0.870438 
1 1:-0.666644 2:-0.755058 3:-0.797724 4:-0.910629 5:-0.832304 6:-0.909569 7:-0.91832 8:-0.99606 9:-0.983662 10:-0.979996 
1 1:-0.99478 2:-0.978754 3:-0.889701 4:-0.90348 5:-0.931373 6:-0.949258 7:-0.87551 8:-0.998629 9:-0.86769 10:-0.919139 
1 1:-0.852637 2:-0.815787 3:-0.897775 4:-0.802414 5:-0.999777 6:-0.934768 7:-0.885916 8:-0.991627 9:-0.879663 10:-0.981949 
1 1:-0.739862 2:-0.977635 3:-0.844077 4:-0.886639 5:-0.822463 6:-0.887125 7:-0.911135 8:-0.980751 9:-0.996784 10:-0.87394 
1 1:-0.657715 2:-0.705094 3:-0.942399 4:-0.961679 5:-0.86054 6:-0.849416 7:-0.896546 8:-0.871653 9:-0.945206 10:-0.892482 
1 1:-0.726962 2:-0.942233 3:-0.767206 4:-0.789713 5:-0.979097 6:-0.908189 7:-0.965766 8:-0.876886 9:-0.920199 10:-0.983621 
1 1:-0.802535 2:-0.952952 3:-0.904003 4:-0.98274 5:-0.80264 6:-0.832348 7:-0.975122 8:-0.943844 9:-0.968478 10:-0.908487 
1 1:-0.952233 2:-0.992046 3:-0.87368 4:-0.824463 5:-0.972548 6:-0.941135 7:-0.893293 8:-0.979632 9:-0.972223 10:-0.890297 
1 1:-0.976294 2:-0.838798 3:-0.961723 4:-0.860128 5:-0.932297 6:-0.836978 7:-0.840052 8:-0.933606 9:-0.972279 10:-0.865345 
1 1:-0.961475 2:-0.951201 3:-0.807401 4:-0.917115 5:-0.913952 6:-0.957743 7:-0.929505 8:-0.987323 9:-0.994786 10:-0.949521 
1 1:-0.952017 2:-0.819033 3:-0.906417 4:-0.99397 5:-0.868657 6:-0.8777 7:-0.899299 8:-0.937197 9:-0.89774 10:-0.951029 
1 1:-0.951883 2:-0.969328 3:-0.871408 4:-0.95072 5:-0.812728 6:-0.895982 7:-0.973038 8:-0.862398 9:-0.949666 10:-0.988734 
1 1:-0.658716 2:-0.724589 3:-0.909239 4:-0.787119 5:-0.964259 6:-0.860879 7:-0.978575 8:-0.944205 9:-0.98508 10:-0.923816 
1 1:-0.732496 2:-0.984962 3:-0.904091 4:-0.945864 5:-0.927808 6:-0.991756 7:-0.843023 8:-0.939503 9:-0.986135 10:-0.984191 
1 1:-0.670339 2:-0.789771 3:-0.968355 4:-0.895673 5:-0.966051 6:-0.944006 7:-0.966272 8:-0.850231 9:-0.911848 10:-0.990208 
1 1:-0.724746 2:-0.992246 3:-0.869117 4:-0.809892 5:-0.91108 6:-0.966202 7:-0.928258 8:-0.897332 9:-0.955669 10:-0.949294 
1 1:-0.877226 2:-0.956085 3:-0.893326 4:-0.89387 5:-0.904956 6:-0.920834 7:-0.90274 8:-0.99774 9:-0.894797 10:-0.981054 
1 1:-0.695121 2:-0.933726 3:-0.948254 4:-0.947017 5:-0.936315 6:-0.826463 7:-0.915934 8:-0.879732 9:-0.966627 10:-0.877493 
1 1:-0.684687 2:-0.966794 3:-0.852142 4:-0.876399 5:-0.856526 6:-0.816284 7:-0.938084 8:-0.998466 9:-0.963954 10:-0.919804 
1 1:-0.809999 2:-0.965234 3:-0.893697 4:-0.897125 5:-0.851039 6:-0.999562 7:-0.922986 8:-0.902131 9:-0.899237 10:-0.985211 
1 1:-0.835662 2:-0.91762 3:-0.970199 4:-0.923906 5:-0.872742 6:-0.982457 7:-0.964485 8:-0.940999 9:-0.858107 10:-0.90876 
1 1:-0.814173 2:-0.984159 3:-0.786383 4:-0.981902 5:-0.982489 6:-0.899781 7:-0.951802 8:-0.903834 9:-0.994939 10:-0.963622 
1 1:-0.755384 2:-0.943423 3:-0.894428 4:-0.807412 5:-0.891179 6:-0.822906 7:-0.949737 8:-0.991617 9:-0.996494 10:-0.885609 
1 1:-0.686187 2:-0.996426 3:-0.821746 4:-0.920977 5:-0.966848 6:-0.859645 7:-0.997397 8:-0.997305 9:-0.990097 10:-0.879251 
1 1:-0.927485 2:-0.755361 3:-0.948189 4:-0.782025 5:-0.997191 6:-0.826048 7:-0.868513 8:-0.917766 9:-0.954896 10:-0.966097 
1 1:-0.717889 2:-0.972871 3:-0.820195 4:-0.915122 5:-0.871123 6:-0.996725 7:-0.911394 8:-0.847875 9:-0.871819 10:-0.99791 
1 1:-0.782495 2:-0.800779 3:-0.952114 4:-0.998946 5:-0.979376 6:-0.902397 7:-0.998297 8:-0.988177 9:-0.983784 10:-0.885411 
1 1:-0.872881 2:-0.92699 3:-0.982956 4:-0.926997 5:-0.969612 6:-0.865405 7:-0.889274 8:-0.992762 9:-0.938381 10:-0.943124 
1 1:-0.959873 2:-0.791786 3:-0.910541 4:-0.80254 5:-0.964382 6:-0.990479 7:-0.935643 8:-0.930832 9:-0.943057 10:-0.981636 
1 1:-0.910502 2:-0.98215 3:-0.780325 4:-0.800063 5:-0.910058 6:-0.853525 7:-0.971998 8:-0.962882 9:-0.890227 10:-0.947143 
1 1:-0.783817 2:-0.924151 3:-0.782246 4:-0.97668 5:-0.827268 6:-0.992323 7:-0.918783 8:-0.866895 9:-0.95586 10:-0.99545 
1 1:-0.977493 2:-0.815713 3:-0.850545 4:-0.916813 5:-0.99009 6:-0.82234 7:-0.896195 8:-0.856213 9:-0.878162 10:-0.952806 
1 1:-0.735012 2:-0.921186 3:-0.758278 4:-0.865284 5:-0.948691 6:-0.936834 7:-0.937879 8:-0.996436 9:-0.972505 10:-0.946911 
1 1:-0.996691 2:-0.897018 3:-0.978629 4:-0.842995 5:-0.987022 6:-0.879901 7:-0.942188 8:-0.955094 9:-0.919433 10:-0.883647 
1 1:-0.997589 2:-0.771095 3:-0.771224 4:-0.854024 5:-0.931694 6:-0.885968 7:-0.998049 8:-0.886415 9:-0.879376 10:-0.890147 
1 1:-0.720248 2:-0.887938 3:-0.796153 4:-0.989228 5:-0.977774 6:-0.889335 7:-0.990453 8:-0.969696 9:-0.882536 10:-0.907862 
1 1:-0.899828 2:-0.831429 3:-0.942975 4:-0.901 5:-0.990751 6:-0.831504 7:-0.945501 8:-0.979223 9:-0.9379 10:-0.866686 
1 1:-0.976893 2:-0.852271 3:-0.920307 4:-0.992043 5:-0.915457 6:-0.986028 7:-0.933963 8:-0.846497 9:-0.907328 10:-0.883707 
1 1:-0.716127 2:-0.999683 3:-0.825079 4:-0.949943 5:-0.870971 6:-0.918654 7:-0.990431 8:-0.921874 9:-0.909302 10:-0.87014 
1 1:-0.989126 2:-0.951644 3:-0.918657 4:-0.828101 5:-0.902957 6:-0.988189 7:-0.898792 8:-0.9967 9:-0.941321 10:-0.966718 
1 1:-0.661433 2:-0.772136 3:-0.904703 4:-0.861988 5:-0.869699 6:-0.981125 7:-0.955607 8:-0.926862 9:-0.995257 10:-0.920528 
1 1:-0.694477 2:-0.921786 3:-0.888963 4:-0.874175 5:-0.991677 6:-0.992988 7:-0.938177 8:-0.860045 9:-0.929079 10:-0.868493 
1 1:-0.704592 2:-0.898265 3:-0.913737 4:-0.979557 5:-0.879137 6:-0.961398 7:-0.956724 8:-0.980763 9:-0.873179 10:-0.952479 
1 1:-0.996902 2:-0.799727 3:-0.824033 4:-0.805583 5:-0.903804 6:-0.830643 7:-0.959852 8:-0.845688 9:-0.939055 10:-0.993256 
1 1:-0.668578 2:-0.946239 3:-0.83351 4:-0.983792 5:-0.977565 6:-0.924294 7:-0.900978 8:-0.916718 9:-0.921197 10:-0.953334 
1 1:-0.857142 2:-0.866652 3:-0.981039 4:-0.942564 5:-0.916938 6:-0.945079 7:-0.899584 8:-0.97069 9:-0.959814 10:-0.869364 
1 1:-0.982083 2:-0.762216 3:-0.96339 4:-0.923401 5:-0.858211 6:-0.830719 7:-0.952944 8:-0.855853 9:-0.95558 10:-0.893548 
1 1:-0.663187 2:-0.89937 3:-0.77824 4:-0.929518 5:-0.977986 6:-0.968382 7:-0.86375 8:-0.920945 9:-0.94625 10:-0.943526 
1 1:-0.762027 2:-0.974098 3:-0.779327 4:-0.97171 5:-0.801172 6:-0.820861 7:-0.831405 8:-0.95917 9:-0.928895 10:-0.956322 
1 1:-0.991265 2:-0.775793 3:-0.868206 4:-0.991139 5:-0.969655 6:-0.926725 7:-0.918025 8:-0.845496 9:-0.90275 10:-0.972469 
1 1:-0.855483 2:-0.941573 3:-0.915247 4:-0.912504 5:-0.951582 6:-0.845242 7:-0.953592 8:-0.989087 9:-0.983019 10:-0.913888 
1 1:-0.849836 2:-0.704263 3:-0.9078 4:-0.90096 5:-0.858817 6:-0.982139 7:-0.963453 8:-0.943888 9:-0.881056 10:-0.975748 
1 1:-0.905804 2:-0.747273 3:-0.896863 4:-0.989798 5:-0.977079 6:-0.856624 7:-0.923359 8:-0.889645 9:-0.992994 10:-0.991292 
1 1:-0.861434 2:-0.925381 3:-0.846811 4:-0.785478 5:-0.995059 6:-0.921201 7:-0.920876 8:-0.964128 9:-0.872488 10:-0.976795 
1 1:-0.739544 2:-0.898469 3:-0.985042 4:-0.961736 5:-0.9811 6:-0.961966 7:-0.953362 8:-0.945375 9:-0.954161 10:-0.972022 
1 1:-0.987658 2:-0.893079 3:-0.945199 4:-0.868029 5:-0.857589 6:-0.87394 7:-0.920873 8:-0.97644 9:-0.868501 10:-0.996709 
1 1:-0.968771 2:-0.802765 3:-0.872134 4:-0.84357 5:-0.943086 6:-0.975604 7:-0.969516 8:-0.977094 9:-0.96127 10:-0.985486 
1 1:-0.906939 2:-0.733695 3:-0.984133 4:-0.830088 5:-0.976665 6:-0.978768 7:-0.844734 8:-0.864654 9:-0.934319 10:-0.887795 
1 1:-0.708522 2:-0.762635 3:-0.884705 4:-0.931291 5:-0.999381 6:-0.991149 7:-0.836568 8:-0.868092 9:-0.988177 10:-0.972874 
1 1:-0.955158 2:-0.962213 3:-0.981001 4:-0.772395 5:-0.961444 6:-0.897134 7:-0.914065 8:-0.864227 9:-0.856179 10:-0.914035 
1 1:-0.67286 2:-0.988186 3:-0.983834 4:-0.839053 5:-0.890254 6:-0.979062 7:-0.863143 8:-0.918367 9:-0.982121 10:-0.868711 
1 1:-0.989144 2:-0.960125 3:-0.926356 4:-0.797166 5:-0.856905 6:-0.869748 7:-0.953646 8:-0.880364 9:-0.952522 10:-0.99433 
1 1:-0.844625 2:-0.808626 3:-0.792582 4:-0.92454 5:-0.992408 6:-0.946207 7:-0.943284 8:-0.845693 9:-0.995077 10:-0.996775 
1 1:-0.723666 2:-0.760265 3:-0.830009 4:-0.793869 5:-0.999347 6:-0.988188 7:-0.993351 8:-0.913354 9:-0.958383 10:-0.943234 
1 1:-0.654205 2:-0.866573 3:-0.863602 4:-0.884834 5:-0.991662 6:-0.892978 7:-0.942318 8:-0.975456 9:-0.988486 10:-0.980318 
1 1:-0.655903 2:-0.863557 3:-0.867235 4:-0.80953 5:-0.82854 6:-0.883553 7:-0.974107 8:-0.978869 9:-0.931558 10:-0.982632 
1 1:-0.979894 2:-0.953567 3:-0.829438 4:-0.860783 5:-0.930426 6:-0.959978 7:-0.909436 8:-0.9493 9:-0.952741 10:-0.98021 
1 1:-0.845631 2:-0.988797 3:-0.779748 4:-0.889696 5:-0.851728 6:-0.987797 7:-0.940821 8:-0.850864 9:-0.951367 10:-0.928441 
1 1:-0.89751 2:-0.991888 3:-0.895433 4:-0.835221 5:-0.991872 6:-0.955586 7:-0.977537 8:-0.973641 9:-0.892349 10:-0.891681 
1 1:-0.75201 2:-0.999972 3:-0.917319 4:-0.946215 5:-0.945961 6:-0.880899 7:-0.958408 8:-0.978136 9:-0.89103 10:-0.938898 
1 1:-0.972991 2:-0.939807 3:-0.791701 4:-0.898056 5:-0.887089 6:-0.958988 7:-0.922838 8:-0.871144 9:-0.897473 10:-0.905715 
1 1:-0.676066 2:-0.960732 3:-0.960029 4:-0.902403 5:-0.977687 6:-0.90897 7:-0.865699 8:-0.874376 9:-0.995738 10:-0.897952 
1 1:-0.859765 2:-0.991701 3:-0.799947 4:-0.775059 5:-0.827234 6:-0.9616 7:-0.989423 8:-0.962204 9:-0.896763 10:-0.993126 
1 1:-0.875062 2:-0.970394 3:-0.938543 4:-0.850778 5:-0.933588 6:-0.820556 7:-0.992502 8:-0.897148 9:-0.948917 10:-0.907085 
1 1:-0.88574 2:-0.914027 3:-0.916825 4:-0.927728 5:-0.996761 6:-0.886017 7:-0.942721 8:-0.849053 9:-0.998611 10:-0.990459 
1 1:-0.917077 2:-0.824261 3:-0.956037 4:-0.781562 5:-0.97826 6:-0.920114 7:-0.845562 8:-0.934732 9:-0.94314 10:-0.977356 
1 1:-0.829411 2:-0.846003 3:-0.975998 4:-0.785349 5:-0.808701 6:-0.976004 7:-0.974013 8:-0.974939 9:-0.883868 10:-0.894163 
1 1:-0.860437 2:-1 3:-0.961716 4:-0.898021 5:-0.928898 6:-0.992855 7:-0.842599 8:-0.930437 9:-0.941074 10:-0.968812 
1 1:-0.95305 2:-0.95027 3:-0.976664 4:-0.801775 5:-0.913539 6:-0.996302 7:-0.872512 8:-0.99106 9:-0.914206 10:-0.908489 
1 1:-0.774252 2:-0.934738 3:-0.852133 4:-0.976252 5:-0.995979 6:-0.975339 7:-0.973479 8:-0.986552 9:-0.994838 10:-0.955843 
1 1:-0.755744 2:-0.751769 3:-0.998075 4:-0.777648 5:-0.969226 6:-0.821546 7:-0.922274 8:-0.995042 9:-0.854861 10:-0.874329 
1 1:-0.950172 2:-0.749254 3:-0.871643 4:-0.994391 5:-0.823584 6:-0.905925 7:-0.831027 8:-0.983327 9:-0.884277 10:-0.885722 
1 1:-0.831522 2:-0.954536 3:-0.9591 4:-0.952149 5:-0.795064 6:-0.869689 7:-0.8487 8:-0.981615 9:-0.956864 10:-0.942763 
1 1:-0.998592 2:-0.823425 3:-0.999674 4:-0.826926 5:-0.998763 6:-0.94817 7:-0.908313 8:-0.869126 9:-0.945946 10:-0.937398 
1 1:-0.778602 2:-0.934175 3:-0.747949 4:-0.981703 5:-0.958136 6:-0.952517 7:-0.913808 8:-0.869688 9:-0.963456 10:-0.93209 
1 1:-0.689079 2:-0.942407 3:-0.9539 4:-0.992071 5:-0.936633 6:-0.823416 7:-0.881788 8:-0.942805 9:-0.985556 10:-0.91703 
1 1:-0.74871 2:-0.989501 3:-0.838593 4:-0.862082 5:-0.84386 6:-0.832065 7:-0.979901 8:-0.987823 9:-0.891719 10:-0.982413 
1 1:-0.781953 2:-0.935018 3:-0.958058 4:-0.823484 5:-0.94905 6:-0.899148 7:-0.867996 8:-0.988384 9:-0.934837 10:-0.998022 
1 1:-0.783134 2:-0.710647 3:-0.78067 4:-0.883481 5:-0.803014 6:-0.987635 7:-0.99421 8:-0.987685 9:-0.924758 10:-0.891683 
1 1:-0.951633 2:-0.709644 3:-0.831169 4:-0.956087 5:-0.882767 6:-0.867078 7:-0.834578 8:-0.990033 9:-0.960847 10:-0.870528 
1 1:-0.97252 2:-0.93542 3:-0.919172 4:-0.902681 5:-0.958151 6:-0.82538 7:-0.992892 8:-0.876362 9:-0.86157 10:-0.937691 
1 1:-0.85821 2:-0.84548 3:-0.880634 4:-0.976488 5:-0.851048 6:-0.971399 7:-0.964762 8:-0.982753 9:-0.923849 10:-0.916499 
1 1:-0.963259 2:-0.910205 3:-0.803888 4:-0.812751 5:-0.963639 6:-0.905487 7:-0.965967 8:-0.860251 9:-0.894825 10:-0.919796 
1 1:-0.945411 2:-0.907702 3:-0.922146 4:-0.971959 5:-0.983211 6:-0.921555 7:-0.974188 8:-0.855887 9:-0.917429 10:-0.972609 
1 1:-0.720805 2:-0.99453 3:-0.923648 4:-0.951002 5:-0.866757 6:-0.863576 7:-0.980643 8:-0.862349 9:-0.969296 10:-0.910256 
1 1:-0.863804 2:-0.889288 3:-0.796441 4:-0.977051 5:-0.886298 6:-0.971659 7:-0.959697 8:-0.901678 9:-0.94012 10:-0.999429 
1 1:-0.949563 2:-0.984119 3:-0.978793 4:-0.834805 5:-0.945586 6:-0.981669 7:-0.945668 8:-0.981632 9:-0.968186 10:-0.890417 
1 1:-0.800741 2:-0.984854 3:-0.966359 4:-0.842847 5:-0.957161 6:-0.814892 7:-0.8685 8:-0.897457 9:-0.90746 10:-0.99564 
1 1:-0.955329 2:-0.912028 3:-0.798944 4:-0.984437 5:-0.957288 6:-0.90751 7:-0.966038 8:-0.880486 9:-0.984207 10:-0.96676 
1 1:-0.85603 2:-0.995776 3:-0.90209 4:-0.984804 5:-0.946537 6:-0.905865 7:-0.873945 8:-0.992623 9:-0.926396 10:-0.962067 
1 1:-0.807257 2:-0.997154 3:-0.947281 4:-0.984975 5:-0.956289 6:-0.850979 7:-0.93134 8:-0.98982 9:-0.871782 10:-0.896953 
1 1:-0.834721 2:-0.935551 3:-0.957671 4:-0.784029 5:-0.957685 6:-0.958425 7:-0.913477 8:-0.921325 9:-0.957419 10:-0.884472 
1 1:-0.996048 2:-0.918363 3:-0.962093 4:-0.968259 5:-0.89812 6:-0.876012 7:-0.900468 8:-0.867738 9:-0.878151 10:-0.980944 
1 1:-0.815555 2:-0.886063 3:-0.74744 4:-0.841648 5:-0.96337 6:-0.84783 7:-0.994165 8:-0.907916 9:-0.998505 10:-0.990596 
1 1:-0.981893 2:-0.742506 3:-0.823825 4:-0.881563 5:-0.976191 6:-0.910283 7:-0.981068 8:-0.947589 9:-0.94257 10:-0.969345 
1 1:-0.849816 2:-0.989636 3:-0.777842 4:-0.958763 5:-0.96132 6:-0.941912 7:-0.975013 8:-0.891292 9:-0.925149 10:-0.951955 
1 1:-0.788944 2:-0.953257 3:-0.935559 4:-0.993502 5:-0.996234 6:-0.85112 7:-0.850286 8:-0.904865 9:-0.861476 10:-0.881217 
1 1:-0.727985 2:-0.977387 3:-0.982162 4:-0.905942 5:-0.859047 6:-0.970415 7:-0.862118 8:-0.912515 9:-0.958131 10:-0.983707 
1 1:-0.996599 2:-0.961282 3:-0.823715 4:-0.863762 5:-0.838564 6:-0.87034 7:-0.997571 8:-0.853498 9:-0.891108 10:-0.876312 
1 1:-0.900468 2:-0.725487 3:-0.991032 4:-0.969033 5:-0.847965 6:-0.938338 7:-0.916434 8:-0.984844 9:-0.89823 10:-0.871305 
1 1:-0.659708 2:-0.886751 3:-0.931952 4:-0.811485 5:-0.944778 6:-0.908691 7:-0.921085 8:-0.973523 9:-0.997778 10:-0.870419 
1 1:-0.86662 2:-0.724771 3:-0.875238 4:-0.784134 5:-0.992688 6:-0.969067 7:-0.967467 8:-0.845339 9:-0.949262 10:-0.979752 
1 1:-0.852304 2:-0.938585 3:-0.9952 4:-0.898338 5:-0.817958 6:-0.874084 7:-0.964852 8:-0.99965 9:-0.911798 10:-0.92646 
1 1:-0.962706 2:-0.830086 3:-0.914889 4:-0.968354 5:-0.833898 6:-0.900285 7:-0.93658 8:-0.904831 9:-0.987448 10:-0.956308 
1 1:-0.684362 2:-0.791057 3:-0.883109 4:-0.967395 5:-0.811142 6:-0.91552 7:-0.986746 8:-0.991412 9:-0.956398 10:-0.922303 
1 1:-0.682158 2:-0.801423 3:-0.899249 4:-0.978367 5:-0.933943 6:-0.919873 7:-0.961874 8:-0.844056 9:-0.954919 10:-0.96838 
1 1:-0.718717 2:-0.986207 3:-0.743836 4:-0.892218 5:-0.862203 6:-0.94473 7:-0.933183 8:-0.984689 9:-0.858858 10:-0.930579 
1 1:-0.797351 2:-0.997906 3:-0.875276 4:-0.809593 5:-0.807049 6:-0.969224 7:-0.953276 8:-0.854537 9:-0.935066 10:-0.899816 
1 1:-0.769456 2:-0.953958 3:-0.811454 4:-0.962535 5:-0.994043 6:-0.971157 7:-0.997067 8:-0.898098 9:-0.882869 10:-0.870109 
1 1:-0.653443 2:-0.71618 3:-0.945381 4:-0.774817 5:-0.975682 6:-0.910969 7:-0.977683 8:-0.930531 9:-0.995782 10:-0.899563 
1 1:-0.998895 2:-0.76828 3:-0.934421 4:-0.896887 5:-0.969166 6:-0.952075 7:-0.957039 8:-0.930892 9:-0.985567 10:-0.901104 
1 1:-0.994568 2:-0.824988 3:-0.811188 4:-0.972675 5:-0.931081 6:-0.939845 7:-0.934725 8:-0.896533 9:-0.886775 10:-0.915798 
1 1:-0.999669 2:-0.940992 3:-0.785332 4:-0.801912 5:-0.973366 6:-0.975473 7:-0.84808 8:-0.897597 9:-0.982585 10:-0.892496 
1 1:-0.972856 2:-0.789856 3:-0.80993 4:-0.929212 5:-0.891974 6:-0.852965 7:-0.846788 8:-0.958239 9:-0.961605 10:-0.987999 
1 1:-0.98304 2:-0.947611 3:-0.920634 4:-0.881468 5:-0.977922 6:-0.943311 7:-0.949158 8:-0.913238 9:-0.889427 10:-0.89257 
1 1:-0.726151 2:-0.741539 3:-0.968182 4:-0.792563 5:-0.897072 6:-0.913664 7:-0.908018 8:-0.961017 9:-0.977419 10:-0.972156 
1 1:-0.738636 2:-0.809743 3:-0.746381 4:-0.970437 5:-0.950129 6:-0.950266 7:-0.968626 8:-0.940116 9:-0.856709 10:-0.988251 
1 1:-0.990676 2:-0.891921 3:-0.781702 4:-0.933115 5:-0.997503 6:-0.923782 7:-0.900268 8:-0.976808 9:-0.930939 10:-0.998303 
1 1:-0.974908 2:-0.705408 3:-0.914035 4:-0.772247 5:-0.898814 6:-0.994416 7:-0.919241 8:-0.919628 9:-0.872983 10:-0.919281 
1 1:-0.838383 2:-0.996154 3:-0.758686 4:-0.824603 5:-0.963237 6:-0.913721 7:-0.990059 8:-0.845466 9:-0.942262 10:-0.927356 
1 1:-0.980326 2:-0.942501 3:-0.972513 4:-0.771586 5:-0.97215 6:-0.968851 7:-0.852732 8:-0.973983 9:-0.90825 10:-0.884312 
1 1:-0.837687 2:-0.77971 3:-0.921034 4:-0.981677 5:-0.836952 6:-0.89758 7:-0.842003 8:-0.993666 9:-0.983382 10:-0.901775 
1 1:-0.926138 2:-0.790692 3:-0.827859 4:-0.779411 5:-0.917059 6:-0.957853 7:-0.982452 8:-0.989358 9:-0.87067 10:-0.921271 
1 1:-0.787803 2:-0.91263 3:-0.879486 4:-0.932876 5:-0.881907 6:-0.997271 7:-0.989766 8:-0.884251 9:-0.901583 10:-0.971498 
1 1:-0.732269 2:-0.97608 3:-0.971287 4:-0.858422 5:-0.846438 6:-0.853382 7:-0.900886 8:-0.997877 9:-0.90164 10:-0.91914 
1 1:-0.961737 2:-0.908412 3:-0.767495 4:-0.950345 5:-0.969561 6:-0.878856 7:-0.864376 8:-0.962373 9:-0.865544 10:-0.919301 
1 1:-0.713053 2:-0.720441 3:-0.768134 4:-0.986664 5:-0.972657 6:-0.874356 7:-0.992221 8:-0.910434 9:-0.941711 10:-0.95563 
1 1:-0.889595 2:-0.911031 3:-0.870154 4:-0.984277 5:-0.859688 6:-0.945736 7:-0.892987 8:-0.858082 9:-0.972706 10:-0.997911 
1 1:-0.86721 2:-0.959583 3:-0.755791 4:-0.80747 5:-0.930435 6:-0.960757 7:-0.962284 8:-0.956709 9:-0.88337 10:-0.960226 
1 1:-0.958921 2:-0.780801 3:-0.938117 4:-0.995945 5:-0.800852 6:-0.954131 7:-0.879369 8:-0.980682 9:-0.964541 10:-0.946158 
1 1:-0.686428 2:-0.96075 3:-0.876755 4:-0.826585 5:-0.990628 6:-0.823043 7:-0.948605 8:-0.878178 9:-0.930279 10:-0.94234 
1 1:-0.937792 2:-0.727979 3:-0.92045 4:-0.968525 5:-0.864208 6:-0.885053 7:-0.956451 8:-0.861639 9:-0.990895 10:-0.961376 
1 1:-0.777865 2:-0.96992 3:-0.759951 4:-0.891498 5:-0.890693 6:-0.985928 7:-0.874584 8:-0.879441 9:-0.948802 10:-0.994351 
1 1:-0.774427 2:-0.937321 3:-0.998096 4:-0.947469 5:-0.858257 6:-0.879146 7:-0.997702 8:-0.85232 9:-0.943682 10:-0.919334 
1 1:-0.906464 2:-0.812476 3:-0.925952 4:-0.792999 5:-0.915157 6:-0.937046 7:-0.973061 8:-0.990915 9:-0.999201 10:-0.921155 
1 1:-0.710982 2:-0.979078 3:-0.949283 4:-0.902986 5:-0.885449 6:-0.924386 7:-0.943243 8:-0.897895 9:-0.888444 10:-0.929066 
1 1:-0.863102 2:-0.859548 3:-0.985109 4:-0.897158 5:-0.827256 6:-0.955451 7:-0.996347 8:-0.925226 9:-0.978244 10:-0.877161 
1 1:-0.755999 2:-0.953488 3:-0.96929 4:-0.902103 5:-0.808691 6:-0.960649 7:-0.989706 8:-0.974461 9:-0.92984 10:-0.952745 
1 1:-0.861092 2:-0.987095 3:-0.785205 4:-0.859577 5:-0.926889 6:-0.975898 7:-0.845378 8:-0.902629 9:-0.989458 10:-0.975903 
1 1:-0.689596 2:-0.941436 3:-0.93639 4:-0.964654 5:-0.839175 6:-0.849479 7:-0.911515 8:-0.979332 9:-0.874194 10:-0.906384 
1 1:-0.898142 2:-0.992907 3:-0.829075 4:-0.973487 5:-0.811125 6:-0.904469 7:-0.97814 8:-0.947778 9:-0.965145 10:-0.91368 
1 1:-0.729055 2:-0.711891 3:-0.842316 4:-0.954783 5:-0.948069 6:-0.940318 7:-0.992439 8:-0.865103 9:-0.961619 10:-0.879469 
1 1:-0.816145 2:-0.972225 3:-0.746488 4:-0.825324 5:-0.886511 6:-0.991801 7:-0.956678 8:-0.880851 9:-0.941772 10:-0.935264 
1 1:-0.962894 2:-0.848678 3:-0.947621 4:-0.811409 5:-0.872231 6:-0.996081 7:-0.957854 8:-0.953363 9:-0.867982 10:-0.880374 
1 1:-0.969715 2:-0.765721 3:-0.863142 4:-0.831663 5:-0.989835 6:-0.901632 7:-0.944882 8:-0.927834 9:-0.914692 10:-0.898732 
1 1:-0.915581 2:-0.711769 3:-0.866309 4:-0.807732 5:-0.845462 6:-0.987338 7:-0.991079 8:-0.928502 9:-0.943689 10:-0.950555 
1 1:-0.959773 2:-0.746803 3:-0.848451 4:-0.955562 5:-0.907293 6:-0.978693 7:-0.907877 8:-0.989518 9:-0.881707 10:-0.991827 
1 1:-0.673373 2:-0.88976 3:-0.813494 4:-0.84823 5:-0.906401 6:-0.992411 7:-0.966971 8:-0.868016 9:-0.95161 10:-0.95733 
1 1:-0.702777 2:-0.811789 3:-0.884916 4:-0.976023 5:-0.841902 6:-0.953414 7:-0.984632 8:-0.911615 9:-0.89489 10:-0.987692 
1 1:-0.943082 2:-0.812095 3:-0.856774 4:-0.844036 5:-0.999096 6:-0.929297 7:-0.972975 8:-0.924339 9:-0.938406 10:-0.988903 
1 1:-0.956472 2:-0.895984 3:-0.789059 4:-0.85338 5:-0.874587 6:-0.840698 7:-0.922872 8:-0.853143 9:-0.995563 10:-0.995886 
1 1:-0.933256 2:-0.967316 3:-0.895663 4:-0.848413 5:-0.815249 6:-0.968481 7:-0.909278 8:-0.916332 9:-0.988983 10:-0.927498 
1 1:-0.777327 2:-0.958687 3:-0.984492 4:-0.893582 5:-0.814055 6:-0.828387 7:-0.932374 8:-0.963708 9:-0.895534 10:-0.917028 
1 1:-0.967405 2:-0.739728 3:-0.986371 4:-0.945256 5:-0.929455 6:-0.911681 7:-0.871527 8:-0.99006 9:-0.897395 10:-0.945592 
1 1:-0.847614 2:-0.962313 3:-0.754876 4:-0.853153 5:-0.976166 6:-0.818831 7:-0.847614 8:-0.955774 9:-0.945449 10:-0.972535 
1 1:-0.986281 2:-0.950527 3:-0.769636 4:-0.933251 5:-0.86898 6:-0.888851 7:-0.964092 8:-0.843658 9:-0.872147 10:-0.949947 
1 1:-0.968214 2:-0.937668 3:-0.989823 4:-0.929545 5:-0.851386 6:-0.875916 7:-0.873013 8:-0.941608 9:-0.94118 10:-0.96258 
1 1:-0.969828 2:-0.729412 3:-0.941827 4:-0.880653 5:-0.879533 6:-0.857545 7:-0.950628 8:-0.953378 9:-0.952729 10:-0.94226 
1 1:-0.876125 2:-0.941285 3:-0.904638 4:-0.925663 5:-0.838946 6:-0.977685 7:-0.945862 8:-0.98233 9:-0.968658 10:-0.983772 
1 1:-0.69139 2:-0.744893 3:-0.788088 4:-0.940446 5:-0.900724 6:-0.922765 7:-0.944869 8:-0.959222 9:-0.967878 10:-0.997756 
1 1:-0.665477 2:-0.918273 3:-0.966956 4:-0.87305 5:-0.857566 6:-0.917042 7:-0.853613 8:-0.918 9:-0.90086 10:-0.985901 
1 1:-0.806703 2:-0.972526 3:-0.806466 4:-0.906848 5:-0.979319 6:-0.920505 7:-0.850412 8:-0.989393 9:-0.950719 10:-0.912205 
1 1:-0.919814 2:-0.758994 3:-0.768019 4:-0.87333 5:-0.949146 6:-0.988102 7:-0.964531 8:-0.943691 9:-0.931526 10:-0.870707 
1 1:-0.762412 2:-0.842789 3:-0.772817 4:-0.795655 5:-0.94138 6:-0.998939 7:-0.976823 8:-0.975577 9:-0.881571 10:-0.967298 
1 1:-0.668427 2:-0.982577 3:-0.902258 4:-0.892491 5:-0.855237 6:-0.851003 7:-0.961117 8:-0.931795 9:-0.976172 10:-0.956871 
1 1:-0.89586 2:-0.769389 3:-0.915576 4:-0.807253 5:-0.990636 6:-0.996563 7:-0.937535 8:-0.886164 9:-0.956778 10:-0.953423 
1 1:-0.84629 2:-0.953992 3:-0.980089 4:-0.987831 5:-0.955625 6:-0.891185 7:-0.933514 8:-0.899372 9:-0.857889 10:-0.942749 
1 1:-0.891243 2:-0.78945 3:-0.74595 4:-0.959332 5:-0.910474 6:-0.858239 7:-0.879772 8:-0.949401 9:-1 10:-0.987434 
1 1:-0.684603 2:-0.742963 3:-0.808867 4:-0.984008 5:-0.900384 6:-0.921924 7:-0.937716 8:-0.969603 9:-0.941211 10:-0.909254 
1 1:-0.962168 2:-0.79461 3:-0.980259 4:-0.930983 5:-0.951038 6:-0.96615 7:-0.862742 8:-0.919581 9:-0.94884 10:-0.878076 
1 1:-0.720393 2:-0.836345 3:-0.905484 4:-0.947488 5:-0.995457 6:-0.885059 7:-0.947637 8:-0.977421 9:-0.976263 10:-0.908928 
1 1:-0.926451 2:-0.925291 3:-0.862218 4:-0.96063 5:-0.933282 6:-0.921532 7:-0.955637 8:-0.862552 9:-0.959994 10:-0.904664 
1 1:-0.78657 2:-0.989469 3:-0.947985 4:-0.889868 5:-0.839433 6:-0.975378 7:-0.900741 8:-0.998861 9:-0.878 10:-0.875159 
1 1:-0.999859 2:-0.739172 3:-0.766244 4:-0.871151 5:-0.857435 6:-0.934321 7:-0.954893 8:-0.933081 9:-0.924233 10:-0.9216 
1 1:-0.886678 2:-0.712621 3:-0.982567 4:-0.791184 5:-0.949223 6:-0.832202 7:-0.896854 8:-0.939581 9:-0.963418 10:-0.906013 
1 1:-0.72157 2:-0.938045 3:-0.810368 4:-0.977711 5:-0.834656 6:-0.900437 7:-0.993757 8:-0.93225 9:-0.939336 10:-0.980959 
1 1:-0.995823 2:-0.931532 3:-0.973953 4:-0.998733 5:-0.889018 6:-0.99107 7:-0.984322 8:-0.984161 9:-0.946106 10:-0.984402 
1 1:-0.678056 2:-0.887451 3:-0.850987 4:-0.898431 5:-0.954353 6:-0.996152 7:-0.868412 8:-0.969659 9:-0.961219 10:-0.96299 
1 1:-0.938446 2:-0.981183 3:-0.774819 4:-0.884561 5:-0.868658 6:-0.818636 7:-0.947191 8:-0.931817 9:-0.956251 10:-0.915654 
1 1:-0.914783 2:-0.979114 3:-0.799042 4:-0.891914 5:-0.986197 6:-0.989278 7:-0.872122 8:-0.959455 9:-0.918944 10:-0.961292 
1 1:-0.961333 2:-0.994349 3:-0.975201 4:-0.792247 5:-0.9738 6:-0.987422 7:-0.976495 8:-0.966305 9:-0.957383 10:-0.984084 
1 1:-0.742762 2:-0.722873 3:-0.992124 4:-0.97231 5:-0.944733 6:-0.871773 7:-0.983581 8:-0.923154 9:-0.896439 10:-0.974522 
1 1:-0.737423 2:-0.97593 3:-0.908775 4:-0.853558 5:-0.880556 6:-0.848261 7:-0.928179 8:-0.989747 9:-0.989921 10:-0.920743 
1 1:-0.660952 2:-0.973782 3:-0.96851 4:-0.828999 5:-0.817723 6:-0.987525 7:-0.904104 8:-0.910711 9:-0.890368 10:-0.950684 
1 1:-0.987586 2:-0.976637 3:-0.917637 4:-0.999791 5:-0.921981 6:-0.978786 7:-0.850382 8:-0.948766 9:-0.976558 10:-0.898271 
1 1:-0.796883 2:-0.941846 3:-0.959895 4:-0.983789 5:-0.949209 6:-0.902681 7:-0.835304 8:-0.877648 9:-0.955653 10:-0.947213 
1 1:-0.666851 2:-0.946779 3:-0.777821 4:-0.785772 5:-0.981159 6:-0.979291 7:-0.970969 8:-0.910325 9:-0.975666 10:-0.879126 
1 1:-0.908177 2:-0.758436 3:-0.767597 4:-0.928504 5:-0.865709 6:-1 7:-0.853227 8:-0.948411 9:-0.969074 10:-0.911775 
1 1:-0.768001 2:-0.951284 3:-0.893233 4:-0.961956 5:-0.922441 6:-0.949372 7:-0.852589 8:-0.931091 9:-0.932868 10:-0.980889 
1 1:-0.967829 2:-0.82296 3:-0.989724 4:-0.787519 5:-0.879568 6:-0.883139 7:-0.998172 8:-0.994152 9:-0.854793 10:-0.946624 
1 1:-0.65973 2:-0.848439 3:-0.838012 4:-0.81706 5:-0.958251 6:-0.930911 7:-0.954158 8:-0.958513 9:-0.984601 10:-0.88831 
1 1:-0.730761 2:-0.727368 3:-0.914681 4:-0.840096 5:-0.950457 6:-0.820965 7:-0.995114 8:-0.996454 9:-0.863837 10:-1 
1 1:-0.686399 2:-0.955898 3:-0.755073 4:-0.958965 5:-0.833603 6:-0.935159 7:-0.884349 8:-0.987551 9:-0.958805 10:-0.948967 
1 1:-0.923632 2:-0.849849 3:-0.973142 4:-0.829137 5:-0.997453 6:-0.856602 7:-0.839933 8:-0.866015 9:-0.91955 10:-0.963946 
1 1:-0.915933 2:-0.716256 3:-0.854042 4:-0.812975 5:-0.952358 6:-0.946995 7:-0.898546 8:-0.993977 9:-0.906765 10:-0.996699 
1 1:-0.911893 2:-0.82698 3:-0.817362 4:-0.989238 5:-0.838279 6:-0.822465 7:-0.901018 8:-0.872352 9:-0.996604 10:-0.991368 
1 1:-0.930632 2:-0.949473 3:-0.98375 4:-0.835851 5:-0.894565 6:-0.970542 7:-0.983732 8:-0.890506 9:-0.987897 10:-0.881405 
1 1:-0.993241 2:-0.819409 3:-0.944129 4:-0.875541 5:-0.795796 6:-0.976651 7:-0.994162 8:-0.980729 9:-0.937891 10:-0.988526 
1 1:-0.987935 2:-0.922904 3:-0.987842 4:-0.796751 5:-0.922082 6:-0.851736 7:-0.842752 8:-0.890008 9:-0.878031 10:-0.897688 
1 1:-0.895855 2:-0.73259 3:-0.791114 4:-0.979491 5:-0.97601 6:-0.882777 7:-0.887323 8:-0.86836 9:-0.976225 10:-0.944226 
1 1:-0.96845 2:-0.875032 3:-0.792369 4:-0.887504 5:-0.80677 6:-0.878046 7:-0.961242 8:-0.968507 9:-0.997375 10:-0.967369 
1 1:-0.757514 2:-0.981828 3:-0.781587 4:-0.922653 5:-0.974672 6:-0.897578 7:-0.832546 8:-0.911969 9:-0.999405 10:-0.925444 
1 1:-0.992032 2:-0.913469 3:-0.790681 4:-0.979358 5:-0.863521 6:-0.846967 7:-0.993749 8:-0.852535 9:-0.928482 10:-0.937904 
1 1:-0.94566 2:-0.823966 3:-0.850615 4:-0.818079 5:-0.798575 6:-0.961921 7:-0.835569 8:-0.994899 9:-0.894104 10:-0.991305 
1 1:-0.902879 2:-0.910728 3:-0.989041 4:-0.795364 5:-0.916047 6:-0.974114 7:-0.883157 8:-0.962142 9:-0.923599 10:-0.949795 
1 1:-0.998525 2:-0.952701 3:-0.745891 4:-0.90187 5:-0.825064 6:-0.894226 7:-0.892254 8:-0.92731 9:-0.88489 10:-0.905148 
1 1:-0.980393 2:-0.840258 3:-0.963725 4:-0.79156 5:-0.994998 6:-0.859763 7:-0.929804 8:-0.931503 9:-0.920722 10:-0.986496 
1 1:-0.94443 2:-0.891585 3:-0.88817 4:-0.897829 5:-0.890109 6:-0.975802 7:-0.976082 8:-0.887177 9:-0.923176 10:-0.90211 
1 1:-0.973131 2:-0.899227 3:-0.828352 4:-0.999964 5:-0.80312 6:-0.948874 7:-0.9467 8:-0.876524 9:-0.922577 10:-0.898788 
1 1:-0.987195 2:-0.750071 3:-0.763047 4:-0.921706 5:-0.884037 6:-0.837319 7:-0.900041 8:-0.953364 9:-0.878646 10:-0.991866 
1 1:-0.928858 2:-0.978881 3:-0.950028 4:-0.938878 5:-0.84453 6:-0.86157 7:-0.999984 8:-0.908457 9:-0.897084 10:-0.911398 
1 1:-0.672773 2:-0.966848 3:-0.989246 4:-0.909727 5:-0.815648 6:-0.843512 7:-0.960156 8:-0.922461 9:-0.995974 10:-0.888241 
1 1:-0.666384 2:-0.7137 3:-0.903724 4:-0.871898 5:-0.975247 6:-0.854294 7:-0.872087 8:-0.956472 9:-0.948546 10:-0.943546 
1 1:-0.66072 2:-0.824358 3:-0.975974 4:-0.858807 5:-0.853032 6:-0.833501 7:-0.990496 8:-0.912046 9:-0.940892 10:-0.931276 
1 1:-0.990161 2:-0.940424 3:-0.969856 4:-0.952512 5:-0.982873 6:-0.986658 7:-0.861187 8:-0.866175 9:-0.895007 10:-0.948036 
0.6037517125729581 1:-0.719996 2:-0.794226 3:-0.766801 4:-0.968136 5:-0.848672 6:-0.945172 7:-0.881386 8:-0.985512 9:-0.885011 10:-0.996771 
1 1:-0.75644 2:-0.757905 3:-0.987448 4:-0.956285 5:-0.988823 6:-0.873358 7:-0.944283 8:-0.909667 9:-0.894232 10:-0.936284 
1 1:-0.777166 2:-0.837658 3:-0.81271 4:-0.967772 5:-0.814754 6:-0.93793 7:-0.94876 8:-0.994033 9:-0.991575 10:-0.926512 
1 1:-0.817097 2:-0.860908 3:-0.999838 4:-0.939921 5:-0.808609 6:-0.869401 7:-0.96593 8:-0.980232 9:-0.884675 10:-0.884127 
1 1:-0.709386 2:-0.977313 3:-0.84094 4:-0.825508 5:-0.805032 6:-0.994596 7:-0.920251 8:-0.986902 9:-0.903102 10:-0.874013 
1 1:-0.875559 2:-0.999641 3:-0.960995 4:-0.90705 5:-0.884248 6:-0.857116 7:-0.976117 8:-0.867506 9:-0.993543 10:-0.999869 
1 1:-0.948161 2:-0.916301 3:-0.926621 4:-0.91489 5:-0.831048 6:-0.834264 7:-0.883277 8:-0.977693 9:-0.876196 10:-0.916384 
1 1:-0.886262 2:-0.784658 3:-0.985754 4:-0.962269 5:-0.960688 6:-0.933912 7:-0.924705 8:-0.851343 9:-0.948772 10:-0.911297 
1 1:-0.963663 2:-0.760349 3:-0.997875 4:-0.909094 5:-0.83246 6:-0.932706 7:-0.904776 8:-0.901896 9:-0.930935 10:-0.887923 
1 1:-0.781255 2:-0.993349 3:-0.964392 4:-0.900582 5:-0.906809 6:-0.82742 7:-0.957844 8:-0.859763 9:-0.977273 10:-0.872489 
1 1:-0.761504 2:-0.762431 3:-0.972478 4:-0.932842 5:-0.993308 6:-0.877719 7:-0.854397 8:-0.874766 9:-0.944733 10:-0.973329 
1 1:-0.656591 2:-0.807257 3:-0.979925 4:-0.828128 5:-0.965804 6:-0.844438 7:-0.878619 8:-0.972716 9:-0.994608 10:-0.924243 
1 1:-0.702877 2:-0.801591 3:-0.792802 4:-0.949125 5:-0.98244 6:-0.916066 7:-0.902542 8:-0.905999 9:-0.984706 10:-0.977895 
1 1:-0.958956 2:-0.797025 3:-0.776345 4:-0.80814 5:-0.926281 6:-0.822789 7:-0.97567 8:-0.989653 9:-0.876554 10:-0.958134 
1 1:-0.84944 2:-0.963612 3:-0.789357 4:-0.936521 5:-0.979576 6:-0.933401 7:-0.862447 8:-0.958316 9:-0.883223 10:-0.934648 
1 1:-0.926169 2:-0.737726 3:-0.81158 4:-0.857804 5:-0.933803 6:-0.898159 7:-0.924914 8:-0.994728 9:-0.973925 10:-0.999442 
1 1:-1 2:-0.712457 3:-0.781756 4:-0.831355 5:-0.837498 6:-0.973673 7:-0.8747 8:-0.931438 9:-0.869182 10:-0.887932 
1 1:-0.971092 2:-0.785658 3:-0.784984 4:-0.952218 5:-0.86563 6:-0.825427 7:-0.94183 8:-0.924246 9:-0.878899 10:-0.999845 
1 1:-0.906085 2:-0.743864 3:-0.760107 4:-0.961762 5:-0.969508 6:-0.96638 7:-0.9193 8:-0.950903 9:-0.951652 10:-0.867976 
1 1:-0.732525 2:-0.740049 3:-0.920261 4:-0.980929 5:-0.844981 6:-0.94064 7:-0.986706 8:-0.86478 9:-0.918477 10:-0.976402 
1 1:-0.962551 2:-0.957248 3:-0.886217 4:-0.931575 5:-0.977327 6:-0.923754 7:-0.97453 8:-0.954048 9:-0.886024 10:-0.8808 
1 1:-0.959256 2:-0.85233 3:-0.949708 4:-0.989049 5:-0.916932 6:-0.979896 7:-0.996465 8:-0.866999 9:-0.884643 10:-0.922516 
1 1:-0.950886 2:-0.724072 3:-0.80774 4:-0.98536 5:-0.802606 6:-0.960565 7:-0.86823 8:-0.988614 9:-0.880561 10:-0.965127 
1 1:-0.877548 2:-0.766482 3:-0.835931 4:-0.999085 5:-0.956014 6:-0.916164 7:-0.965472 8:-0.874303 9:-0.972267 10:-0.936166 
1 1:-0.950937 2:-0.730948 3:-0.909402 4:-0.881814 5:-0.886825 6:-0.981116 7:-0.932024 8:-0.980251 9:-0.860035 10:-0.948906 
1 1:-0.878396 2:-0.819273 3:-0.977355 4:-0.817417 5:-0.855838 6:-0.938155 7:-0.834254 8:-0.956406 9:-0.95463 10:-0.985676 
1 1:-0.951402 2:-0.719441 3:-0.885641 4:-0.860314 5:-0.82534 6:-0.874909 7:-0.911398 8:-0.990749 9:-0.969256 10:-0.902034 
1 1:-0.662555 2:-0.723297 3:-0.875655 4:-0.782889 5:-0.883341 6:-0.989998 7:-0.93973 8:-0.851149 9:-0.967861 10:-0.973998 
1 1:-0.971683 2:-0.849472 3:-0.760224 4:-0.956947 5:-0.922512 6:-0.833819 7:-0.9083 8:-0.993606 9:-0.858594 10:-0.875474 
1 1:-0.848066 2:-0.896077 3:-0.838212 4:-0.83389 5:-0.919904 6:-0.990956 7:-0.89846 8:-0.970907 9:-0.998373 10:-0.991528 
1 1:-0.68614 2:-0.774911 3:-0.747515 4:-0.975777 5:-0.900277 6:-0.884634 7:-0.96797 8:-0.999864 9:-0.930594 10:-0.994721 
1 1:-0.746872 2:-0.86007 3:-0.945731 4:-0.979567 5:-0.824123 6:-0.875783 7:-0.979602 8:-0.866731 9:-0.984633 10:-0.936784 
1 1:-0.985125 2:-0.820559 3:-0.747465 4:-0.852044 5:-0.880745 6:-0.873374 7:-0.933124 8:-0.884271 9:-0.936112 10:-0.996664 
1 1:-0.695809 2:-0.909227 3:-0.937831 4:-0.995203 5:-0.96976 6:-0.817846 7:-0.980944 8:-0.908215 9:-0.907548 10:-0.902336 
1 1:-0.754592 2:-0.718301 3:-0.796256 4:-0.946375 5:-0.987194 6:-0.902421 7:-0.847253 8:-0.925156 9:-0.983232 10:-0.938204 
1 1:-0.987913 2:-0.984 3:-0.879473 4:-0.907155 5:-0.995806 6:-0.869787 7:-0.842759 8:-0.932505 9:-0.993646 10:-0.907776 
1 1:-0.956075 2:-0.771064 3:-0.873536 4:-0.945916 5:-0.957765 6:-0.814824 7:-0.895237 8:-0.931791 9:-0.932412 10:-0.928355 
1 1:-0.817966 2:-0.974614 3:-0.958775 4:-0.866988 5:-0.98283 6:-0.830003 7:-0.976311 8:-0.86954 9:-0.926841 10:-0.901468 
1 1:-0.67118 2:-0.913338 3:-0.779176 4:-0.958455 5:-0.88785 6:-0.921926 7:-0.991377 8:-0.936026 9:-0.921363 10:-0.995571 
1 1:-0.714383 2:-0.848771 3:-0.896099 4:-0.918969 5:-0.995529 6:-0.990394 7:-0.835756 8:-0.922907 9:-0.940487 10:-0.882941 
1 1:-0.975749 2:-0.880695 3:-0.98565 4:-0.957839 5:-0.972124 6:-0.951891 7:-0.904073 8:-0.993347 9:-0.921598 10:-0.980156 
1 1:-0.963281 2:-0.935363 3:-0.818924 4:-0.842064 5:-0.853097 6:-0.818597 7:-0.997861 8:-0.949292 9:-0.982193 10:-0.988753 
1 1:-0.977087 2:-0.933827 3:-0.811078 4:-0.78908 5:-0.881028 6:-0.956598 7:-0.923639 8:-0.876167 9:-0.984442 10:-0.913522 
1 1:-0.992552 2:-0.983212 3:-0.778574 4:-0.834888 5:-0.989804 6:-0.889483 7:-0.9599 8:-0.916924 9:-0.906892 10:-0.912418 
1 1:-0.912624 2:-0.95057 3:-0.777768 4:-0.936554 5:-0.927565 6:-0.948463 7:-0.92646 8:-0.925679 9:-0.95011 10:-0.939002 
1 1:-0.857646 2:-0.93211 3:-0.938581 4:-0.973205 5:-0.925145 6:-0.975801 7:-0.943281 8:-0.876575 9:-0.909975 10:-0.957162 
1 1:-0.934544 2:-0.866583 3:-0.927133 4:-0.995145 5:-0.8339 6:-0.935043 7:-0.846611 8:-0.986156 9:-0.922841 10:-0.942141 
1 1:-0.72622 2:-0.790562 3:-0.964361 4:-0.851088 5:-0.901544 6:-0.945357 7:-0.973269 8:-0.937091 9:-0.877161 10:-0.989673 
1 1:-0.849154 2:-0.752325 3:-0.948133 4:-0.985445 5:-0.874228 6:-0.924452 7:-0.967694 8:-0.976961 9:-0.948171 10:-0.998649 
1 1:-0.771125 2:-0.971122 3:-0.820124 4:-0.881519 5:-0.872417 6:-0.98832 7:-0.965163 8:-0.92803 9:-0.958007 10:-0.872983 
1 1:-0.718327 2:-0.721724 3:-0.978786 4:-0.972967 5:-0.992297 6:-0.995085 7:-0.995193 8:-0.95565 9:-0.954389 10:-0.911899 
1 1:-0.987681 2:-0.981414 3:-0.865903 4:-0.889633 5:-0.853894 6:-0.964773 7:-0.941455 8:-0.967526 9:-0.9253 10:-0.904173 
1 1:-0.772191 2:-0.804469 3:-0.952282 4:-0.914784 5:-0.987318 6:-0.876533 7:-0.964109 8:-0.971222 9:-0.97271 10:-0.895492 
1 1:-0.663985 2:-0.974208 3:-0.887441 4:-0.838435 5:-0.928627 6:-0.914582 7:-0.953932 8:-0.938725 9:-0.960173 10:-0.950328 
1 1:-0.995088 2:-0.909761 3:-0.965299 4:-0.83855 5:-0.816719 6:-0.979573 7:-0.95456 8:-0.902567 9:-0.880801 10:-0.925772 
