svm_type c_svc
kernel_type rbf
gamma 0.166667
nr_class 2
total_sv 8
rho 0.0194905
label 1 -1
nr_sv 5 3
SV
0.1154373732755847 1:-0.754708 2:-0.780274 3:-0.0133606 4:0.126426 5:0.523735 6:0.82174 
0.01412856448507357 1:-0.772161 2:-0.810036 3:-0.0370299 4:0.96927 5:0.630109 6:0.842849 
0.1984585015921821 1:-0.701207 2:-0.662766 3:-0.226553 4:0.829826 5:0.547183 6:0.736509 
0.2116512910167553 1:-0.753755 2:-0.91838 3:-0.920401 4:1 5:0.917416 6:0.889259 
0.9069000595280016 1:-0.850276 2:-0.510596 3:-0.286769 4:0.0492544 5:0.536821 6:0.738046 
-0.06203709769521432 1:0.677113 2:0.508133 3:0.0378652 4:-0.788768 5:-0.88442 6:-0.760568 
-0.9332155070505884 1:0.83969 2:0.5799 3:0.10035 4:-0.0607523 5:-0.599385 6:-0.808233 
-0.4513231851517945 1:0.715606 2:0.550735 3:0.980256 4:-0.952973 5:-0.834562 6:-0.669076 
