svm_type c_svc
kernel_type rbf
gamma 0.166667
nr_class 2
total_sv 7
rho -0.0156017
label 1 -1
nr_sv 3 4
SV
0.4576783692840568 1:-0.872812 2:-0.557483 3:-0.82309 4:0.878478 5:0.553587 6:0.681111 
0.2232093980047093 1:-0.673451 2:-0.605647 3:-0.0514205 4:0.0460645 5:0.659143 6:0.940813 
0.754277307160522 1:-0.73909 2:-0.755782 3:-0.0265186 4:0.0332989 5:0.717969 6:0.675587 
-0.0330431881877479 1:0.72897 2:0.554063 3:0.0114558 4:-0.227354 5:-0.787066 6:-0.931354 
-0.4049356543099013 1:0.701254 2:0.659234 3:0.979749 4:-0.521226 5:-0.541414 6:-0.672093 
-0.2055941699308346 1:0.882798 2:0.517153 3:0.0568959 4:-0.992184 5:-0.79382 6:-0.79351 
-0.7915920620208041 1:0.717469 2:0.691167 3:0.18855 4:-0.214802 5:-0.515559 6:-0.800757 
