svm_type one_class
kernel_type rbf
gamma 0.166667
nr_class 2
total_sv 105
rho 51.7322
SV
1 1:0.868372 2:0.613134 3:0.744546 4:-0.120292 5:-0.853239 6:-0.801254 
1 1:0.929606 2:0.827027 3:0.945978 4:-0.724524 5:-0.704038 6:-0.894196 
1 1:0.687247 2:0.648916 3:0.965768 4:-0.456496 5:-0.793896 6:-0.975189 
1 1:0.87893 2:0.591765 3:0.309147 4:-0.969201 5:-0.630783 6:-0.681816 
1 1:0.897161 2:0.872118 3:0.905718 4:-0.330325 5:-0.765453 6:-0.827754 
1 1:0.937129 2:0.951549 3:0.692742 4:-0.670918 5:-0.507046 6:-0.830061 
1 1:0.910884 2:0.747372 3:0.836002 4:-0.988303 5:-0.809736 6:-0.829569 
1 1:0.851659 2:0.936996 3:0.470417 4:-0.897344 5:-0.64565 6:-0.891501 
1 1:0.719757 2:0.716829 3:0.0524627 4:-0.511017 5:-0.94442 6:-0.949125 
1 1:0.80675 2:0.998618 3:0.0443803 4:-0.779741 5:-0.724402 6:-0.886771 
1 1:0.906445 2:0.828128 3:0.0135116 4:-0.788135 5:-0.552576 6:-0.879883 
1 1:0.729003 2:0.989117 3:0.751897 4:-0.824431 5:-0.87677 6:-0.98827 
1 1:0.953788 2:0.602152 3:0.988964 4:-0.255312 5:-0.855758 6:-0.993175 
1 1:0.680689 2:0.578331 3:0.900567 4:-0.467976 5:-0.992254 6:-0.863041 
1 1:0.943736 2:0.636908 3:0.948071 4:-0.33487 5:-0.91409 6:-0.668422 
1 1:0.97856 2:0.980658 3:0.279109 4:-0.413433 5:-0.78943 6:-0.835649 
1 1:0.969194 2:0.850003 3:0.132236 4:-0.609341 5:-0.619452 6:-1 
0.3408616423178664 1:0.701254 2:0.659234 3:0.979749 4:-0.521226 5:-0.541414 6:-0.672093 
1 1:0.952077 2:0.99661 3:0.298216 4:-0.693909 5:-0.757825 6:-0.869998 
1 1:1 2:0.906173 3:0.865599 4:-0.935081 5:-0.741578 6:-0.710751 
1 1:0.760631 2:0.946102 3:0.92884 4:-0.085901 5:-1 6:-0.780545 
1 1:0.972188 2:0.987271 3:0.14102 4:-0.389611 5:-0.823091 6:-0.721413 
1 1:0.943245 2:0.89599 3:0.376057 4:-0.288802 5:-0.959933 6:-0.795742 
1 1:0.982 2:0.758075 3:0.284865 4:-1 5:-0.771635 6:-0.742701 
1 1:0.883965 2:0.835704 3:0.162814 4:-0.914384 5:-0.863233 6:-0.906437 
1 1:0.862557 2:0.866846 3:0.684768 4:-0.0646005 5:-0.645712 6:-0.920933 
1 1:0.945796 2:0.556687 3:0.0537427 4:-0.197596 5:-0.985314 6:-0.887471 
1 1:0.724331 2:1 3:0.224836 4:-0.427194 5:-0.961741 6:-0.911993 
1 1:0.676714 2:0.656389 3:0.64224 4:-0.874878 5:-0.73225 6:-0.957382 
1 1:0.892603 2:0.981731 3:1 4:-0.072291 5:-0.513879 6:-0.967747 
1 1:0.853878 2:0.651336 3:0.985049 4:-0.110954 5:-0.64859 6:-0.917766 
1 1:0.802084 2:0.8105 3:0.964618 4:-0.861297 5:-0.811869 6:-0.89553 
1 1:0.930089 2:0.981982 3:0.160218 4:-0.919294 5:-0.538171 6:-0.910921 
1 1:0.981076 2:0.668835 3:0.0113389 4:-0.565172 5:-0.71363 6:-0.972335 
1 1:0.968954 2:0.760464 3:0.791767 4:-0.487297 5:-0.956129 6:-0.814913 
1 1:0.74555 2:0.956353 3:0.734895 4:-0.139134 5:-0.677121 6:-0.756523 
1 1:0.946201 2:0.810067 3:0.226014 4:-0.720479 5:-0.766853 6:-0.934471 
0.3941272375339162 1:0.780867 2:0.653743 3:0.166554 4:-0.770239 5:-0.889095 6:-0.862402 
1 1:0.869747 2:0.862697 3:0.305941 4:-0.841284 5:-0.807341 6:-0.770274 
1 1:0.888126 2:0.983123 3:0.929137 4:-0.902626 5:-0.541557 6:-0.907717 
1 1:0.724145 2:0.519527 3:0.40648 4:-0.948572 5:-0.517335 6:-0.998687 
0.2218119737303582 1:0.90784 2:0.571913 3:0.180972 4:-0.116273 5:-0.841184 6:-0.843589 
1 1:0.704059 2:0.912772 3:0.986497 4:-0.0983178 5:-0.503954 6:-0.88232 
1 1:0.674952 2:0.993207 3:0.427333 4:-0.908834 5:-0.583202 6:-0.820857 
1 1:0.873981 2:0.574984 3:0.630634 4:-0.91677 5:-0.508787 6:-0.795309 
1 1:0.836558 2:0.575288 3:0.505218 4:-0.854334 5:-0.969106 6:-0.814587 
1 1:0.821067 2:0.620325 3:0.234278 4:-0.831048 5:-0.925523 6:-0.69214 
1 1:0.882798 2:0.517153 3:0.0568959 4:-0.992184 5:-0.79382 6:-0.79351 
1 1:0.844248 2:0.819701 3:0.956769 4:-0.244919 5:-0.537117 6:-0.746266 
1 1:0.962421 2:0.90776 3:0.777079 4:-0.0614633 5:-0.611191 6:-0.980008 
1 1:0.929875 2:0.694153 3:0.323067 4:-0.106032 5:-0.946164 6:-0.919877 
1 1:0.718313 2:0.806568 3:0.832679 4:-0.663729 5:-0.820207 6:-0.848919 
0.2193495330084673 1:-0.83483 2:-0.968431 3:-0.490556 4:0.0339798 5:0.655827 6:0.753122 
1 1:-0.962675 2:-0.656913 3:-0.799996 4:0.731109 5:0.587827 6:0.939827 
1 1:-0.988981 2:-0.667622 3:-0.204417 4:0.208414 5:0.861695 6:0.922551 
1 1:-0.850286 2:-0.523306 3:-0.265438 4:0.325623 5:0.937364 6:0.986726 
1 1:-0.962017 2:-0.529192 3:-0.0936686 4:0.115306 5:0.858332 6:0.815315 
1 1:-0.79634 2:-0.855488 3:-0.549986 4:0.147032 5:0.961683 6:0.796844 
1 1:-0.887297 2:-0.784862 3:-0.548744 4:-0.0185477 5:0.867983 6:0.738806 
1 1:-0.699 2:-0.977687 3:-1 4:0.821025 5:0.78342 6:0.776675 
1 1:-0.685767 2:-0.953195 3:-0.786747 4:0.385822 5:0.858141 6:0.811154 
1 1:-0.863663 2:-0.755531 3:-0.855076 4:0.200264 5:0.825085 6:0.934038 
1 1:-0.872812 2:-0.557483 3:-0.82309 4:0.878478 5:0.553587 6:0.681111 
1 1:-0.707195 2:-0.759484 3:-0.941156 4:0.0393122 5:0.740298 6:0.80188 
1 1:-0.953896 2:-0.616997 3:-0.0538188 4:0.834513 5:0.574131 6:0.824097 
1 1:-0.961659 2:-1 3:-0.649066 4:1 5:0.925342 6:0.907412 
1 1:-0.997144 2:-0.634106 3:-0.929896 4:0.299904 5:0.673369 6:0.775456 
1 1:-0.969336 2:-0.549729 3:-0.953207 4:0.704101 5:0.966971 6:0.970202 
1 1:-0.68913 2:-0.574044 3:-0.256313 4:0.920054 5:0.814494 6:0.991466 
1 1:-0.805874 2:-0.74245 3:-0.018665 4:0.773145 5:0.754535 6:0.87786 
1 1:-0.691802 2:-0.956927 3:-0.0697813 4:0.152139 5:0.626221 6:0.856204 
1 1:-0.890974 2:-0.900485 3:-0.49013 4:0.896228 5:0.709489 6:0.77202 
1 1:-0.893687 2:-0.816514 3:-0.571243 4:0.879624 5:0.585572 6:0.970768 
1 1:-0.940099 2:-0.532515 3:-0.0362097 4:0.210132 5:0.997595 6:0.926707 
1 1:-0.990853 2:-0.940378 3:-0.872898 4:0.475616 5:0.625803 6:0.754157 
1 1:-0.958395 2:-0.831661 3:-0.408626 4:0.025496 5:0.607887 6:0.866961 
1 1:-0.9695 2:-0.952969 3:-0.868878 4:0.079586 5:0.851152 6:0.716457 
1 1:-0.923562 2:-0.912943 3:-0.585419 4:0.967324 5:0.759683 6:0.982151 
1 1:-0.869822 2:-0.963845 3:-0.107236 4:0.90827 5:0.606965 6:0.707991 
1 1:-0.8118 2:-0.803241 3:-0.747389 4:0.814256 5:0.575259 6:0.894794 
1 1:-0.949455 2:-0.938821 3:-0.960674 4:0.346958 5:0.637286 6:0.935025 
1 1:-0.810143 2:-0.985018 3:-0.735214 4:0.995292 5:0.897523 6:0.757466 
1 1:-0.848487 2:-0.804571 3:-0.0559326 4:0.539097 5:0.859744 6:0.87191 
1 1:-0.855684 2:-0.903772 3:-0.757517 4:0.897486 5:0.667824 6:0.984884 
1 1:-0.760351 2:-0.907277 3:-0.849029 4:0.191643 5:0.754831 6:0.961684 
1 1:-0.945048 2:-0.913272 3:-0.392369 4:0.79981 5:0.60798 6:0.89465 
1 1:-0.893047 2:-0.893403 3:-0.959535 4:0.799339 5:0.539001 6:0.894667 
0.1153778860295316 1:-0.673451 2:-0.605647 3:-0.0514205 4:0.0460645 5:0.659143 6:0.940813 
1 1:-0.949488 2:-0.760604 3:-0.165324 4:0.798923 5:0.804725 6:1 
1 1:-0.701498 2:-0.664 3:-0.884515 4:0.844091 5:0.696621 6:0.857582 
0.06045060906876125 1:-0.966296 2:-0.724168 3:-0.627956 4:0.243344 5:0.953636 6:0.745967 
1 1:-0.923274 2:-0.694328 3:-0.352202 4:0.0480357 5:0.98138 6:0.918635 
1 1:-0.796452 2:-0.665022 3:-0.90851 4:0.755836 5:0.658338 6:0.778607 
1 1:-0.99284 2:-0.876941 3:-0.204385 4:0.979424 5:0.658213 6:0.734486 
1 1:-0.673291 2:-0.930661 3:-0.172449 4:0.863096 5:0.751697 6:0.756135 
0.6480211183110988 1:-0.937747 2:-0.784617 3:-0.0276187 4:0.382479 5:0.650093 6:0.872418 
1 1:-0.71759 2:-0.917784 3:-0.760841 4:0.785164 5:0.722007 6:0.862316 
1 1:-0.832075 2:-0.900691 3:-0.900942 4:0.404963 5:0.749981 6:0.777332 
1 1:-0.723381 2:-0.989122 3:-0.118596 4:0.101824 5:0.905214 6:0.841146 
1 1:-0.951161 2:-0.987469 3:-0.775025 4:0.680211 5:0.951699 6:0.990237 
1 1:-0.895642 2:-0.862001 3:-0.270171 4:0.952896 5:0.892947 6:0.757983 
1 1:-0.720061 2:-0.950929 3:-0.872586 4:0.781405 5:0.518856 6:0.907027 
1 1:-0.860778 2:-0.814037 3:-0.917849 4:0.41119 5:0.675281 6:0.943137 
1 1:-0.729007 2:-0.665794 3:-0.908555 4:0.778512 5:0.711691 6:0.781839 
1 1:-1 2:-0.919144 3:-0.945021 4:0.577011 5:0.559535 6:0.681691 
