svm_type one_class
kernel_type rbf
gamma 0.333333
nr_class 2
total_sv 13
rho 5.19585
SV
1 1:-0.0316412 2:-1 3:1 
1 1:-1 2:0.136205 3:0.859974 
1 1:0.231824 2:-0.667005 3:-0.460271 
1 1:1 2:0.776913 3:-1 
1 1:-0.956546 2:1 3:-0.157717 
1 1:0.854424 2:0.482026 3:0.696582 
0.9894669672377046 1:-0.294549 2:0.23903 3:-0.995814 
1 1:-0.0316412 2:-1 3:1 
0.8025555599389271 1:-1 2:0.136205 3:0.859974 
0.2079774728233684 1:0.231824 2:-0.667005 3:-0.460271 
1 1:1 2:0.776913 3:-1 
1 1:-0.956546 2:1 3:-0.157717 
1 1:0.854424 2:0.482026 3:0.696582 
