svm_type one_class
kernel_type rbf
gamma 0.166667
nr_class 2
total_sv 53
rho 23.5614
SV
0.6389703086332946 1:0.823331 2:-0.753916 3:-0.483429 4:-0.870881 5:0.282335 6:-0.0862354 
1 1:-0.903067 2:-1 3:-0.724619 4:0.0666654 5:-0.532505 6:-0.777275 
1 1:0.816394 2:-0.451869 3:0.4699 4:-0.753008 5:-0.713643 6:-0.517139 
1 1:-0.120273 2:-0.427198 3:-0.912446 4:-0.587027 5:0.434492 6:-0.949866 
1 1:0.892092 2:-0.753579 3:-0.0620489 4:0.784345 5:0.865631 6:0.696939 
1 1:-0.399082 2:0.984966 3:-0.569066 4:1 5:-0.992288 6:0.51276 
1 1:-0.98987 2:0.0578018 3:-0.0677279 4:-0.973698 5:-1 6:0.304273 
1 1:0.921613 2:-0.180788 3:0.081255 4:0.971776 5:-0.909051 6:0.976163 
1 1:-0.593532 2:-0.664581 3:0.579671 4:-0.0376939 5:0.950109 6:0.981281 
1 1:-0.720764 2:0.0543882 3:0.897835 4:-0.740589 5:-0.315828 6:-0.805578 
1 1:-0.785249 2:-0.935833 3:0.139572 4:-0.553375 5:0.538784 6:-0.528259 
1 1:-0.176208 2:0.945624 3:0.137964 4:-0.429901 5:-0.744163 6:-0.766439 
1 1:0.533333 2:0.642943 3:0.943636 4:0.605953 5:0.594944 6:0.0323693 
1 1:-0.529398 2:0.296682 3:0.422257 4:0.425928 5:0.856701 6:0.902466 
1 1:0.969273 2:-0.931205 3:-0.778275 4:-0.701018 5:-0.30157 6:0.946077 
1 1:0.995337 2:0.935106 3:-0.0250596 4:-0.729553 5:-0.369775 6:0.748165 
1 1:-0.487254 2:0.0940677 3:0.633369 4:-0.704371 5:-0.995958 6:0.327643 
1 1:-0.655522 2:0.532485 3:-0.0783497 4:-0.628542 5:0.569167 6:-0.935751 
1 1:0.793036 2:-0.882485 3:-0.448706 4:-0.757328 5:0.455048 6:-0.153372 
1 1:-0.227148 2:0.673334 3:-0.0878246 4:0.151766 5:0.927568 6:-0.890635 
1 1:-0.29036 2:0.294042 3:-0.0161772 4:0.831366 5:0.993557 6:-0.905488 
1 1:-0.880959 2:0.836303 3:-0.61793 4:0.928816 5:0.0599614 6:0.630535 
1 1:-1 2:0.664228 3:0.383028 4:0.647515 5:0.62131 6:-0.708976 
1 1:0.895942 2:-0.670387 3:0.261307 4:-0.78793 5:-0.665847 6:-0.357638 
1 1:-0.593526 2:-0.61925 3:-0.82742 4:0.953692 5:-0.939142 6:-0.329383 
1 1:-0.84721 2:0.915158 3:-1 4:-1 5:-0.182258 6:0.185729 
0.2620859196886109 1:-0.0192634 2:0.947398 3:0.366672 4:-0.904529 5:0.226025 6:-0.536538 
1 1:-0.291621 2:1 3:-0.935219 4:-0.230498 5:0.416712 6:0.545537 
1 1:0.624176 2:0.724557 3:0.0719209 4:-0.856165 5:0.982329 6:0.415307 
1 1:-0.929126 2:-0.81192 3:-0.35872 4:0.107722 5:-0.890954 6:-0.62638 
1 1:-0.464937 2:0.501068 3:0.773808 4:-0.409303 5:0.894031 6:-0.0673602 
1 1:0.995228 2:-0.530057 3:-0.532503 4:-0.278199 5:0.794019 6:0.918583 
1 1:0.655432 2:0.980953 3:-0.635042 4:-0.96754 5:0.544998 6:-0.926972 
1 1:-0.14598 2:0.826417 3:-0.586059 4:-0.968111 5:-0.47525 6:0.919817 
1 1:-0.619273 2:-0.784828 3:0.266731 4:0.869343 5:-0.582961 6:0.756148 
1 1:-0.606452 2:-0.768131 3:0.697534 4:0.240011 5:-0.93771 6:0.400324 
1 1:0.831812 2:0.975056 3:0.0343357 4:0.615953 5:-0.71307 6:-0.843379 
1 1:0.620158 2:0.863112 3:-0.433976 4:-0.54786 5:0.711614 6:0.666298 
1 1:0.460497 2:-0.367439 3:-0.785948 4:-0.92705 5:0.529286 6:-0.536816 
0.451131102046875 1:0.824445 2:-0.697761 3:0.513057 4:0.431641 5:-0.702914 6:0.173377 
1 1:0.750424 2:0.380816 3:0.420271 4:0.985381 5:0.0583826 6:0.860925 
1 1:1 2:-0.628534 3:-0.842337 4:0.724517 5:-0.651063 6:-0.320107 
0.4695561553857512 1:-0.454966 2:0.0998653 3:-0.480684 4:-0.96034 5:0.362745 6:0.894959 
0.1782565142454682 1:-0.796749 2:0.602504 3:-0.319156 4:-0.388322 5:0.024841 6:1 
1 1:0.54178 2:-0.518142 3:0.930784 4:0.443972 5:-0.963352 6:-0.513772 
1 1:0.621089 2:0.607913 3:-0.899185 4:0.663523 5:0.457494 6:-0.217346 
1 1:-0.498583 2:0.864399 3:-0.903778 4:0.612267 5:-0.0277536 6:0.495346 
1 1:-0.0607207 2:-0.456303 3:1 4:0.498156 5:-0.975771 6:0.111715 
1 1:0.983672 2:0.0352899 3:0.643032 4:0.982955 5:-0.447206 6:-0.143907 
1 1:0.115875 2:0.240351 3:0.692904 4:-0.614779 5:0.937889 6:0.589878 
1 1:0.506291 2:-0.932133 3:-0.324506 4:-0.846563 5:-0.820526 6:0.958868 
1 1:0.21775 2:-0.991772 3:0.169586 4:-0.873561 5:-0.35827 6:-0.9813 
1 1:-0.775707 2:-0.15088 3:-0.0947599 4:0.929872 5:0.120207 6:0.919671 
