svm_type one_class
kernel_type rbf
gamma 0.166667
nr_class 2
total_sv 103
rho 51.6177
SV
1 1:0.924867 2:0.870955 3:0.985076 4:-0.929487 5:-0.566961 6:-0.850684 
1 1:0.908943 2:0.79692 3:0.187426 4:-0.147855 5:-0.542186 6:-0.947074 
1 1:0.831228 2:0.785734 3:0.371345 4:-0.0126399 5:-0.875654 6:-0.815043 
1 1:0.91073 2:0.995874 3:0.751502 4:-1 5:-0.578805 6:-0.804206 
1 1:0.822786 2:0.544457 3:0.925568 4:-0.70372 5:-0.883682 6:-0.721942 
1 1:0.851196 2:0.708966 3:0.0382685 4:-0.477614 5:-0.905357 6:-0.798739 
1 1:0.910131 2:0.785821 3:0.966351 4:-0.0730738 5:-0.587047 6:-0.744372 
1 1:0.808916 2:0.957322 3:0.18226 4:-0.421173 5:-0.959901 6:-0.713653 
1 1:0.775061 2:0.749545 3:0.833331 4:-0.995977 5:-0.500992 6:-0.983362 
1 1:0.858276 2:0.527007 3:0.955259 4:-0.171005 5:-0.985464 6:-0.802695 
1 1:0.907427 2:0.701722 3:0.886041 4:-0.979394 5:-0.86791 6:-0.92916 
1 1:0.677113 2:0.508133 3:0.0378652 4:-0.788768 5:-0.88442 6:-0.760568 
1 1:0.904817 2:0.646027 3:0.895366 4:-0.995877 5:-0.743359 6:-0.712762 
1 1:0.935306 2:0.973268 3:0.379922 4:-0.841818 5:-0.902986 6:-0.67294 
1 1:0.977417 2:0.835454 3:0.9522 4:-0.150444 5:-0.54117 6:-0.800386 
1 1:0.942387 2:0.782467 3:0.881381 4:-0.659876 5:-0.933993 6:-0.989135 
1 1:0.784087 2:0.948126 3:0.814602 4:-0.245678 5:-0.850884 6:-0.855702 
1 1:0.994824 2:0.60912 3:0.99367 4:-0.97308 5:-0.902519 6:-0.75738 
1 1:0.820597 2:0.569745 3:0.0111022 4:-0.745441 5:-0.593309 6:-0.82292 
1 1:0.746229 2:0.835855 3:0.938757 4:-0.396337 5:-0.712457 6:-0.951501 
1 1:0.875886 2:0.580658 3:0.797508 4:-0.188465 5:-0.775079 6:-0.979179 
1 1:0.8435 2:0.946768 3:0.891064 4:-0.29607 5:-0.987155 6:-0.824827 
0.215162059053628 1:0.678705 2:0.957313 3:0.642156 4:-0.324989 5:-1 6:-0.682467 
1 1:0.829566 2:0.581627 3:0.171234 4:-0.805672 5:-0.959102 6:-0.824697 
1 1:0.960329 2:0.955394 3:0.32019 4:-0.393303 5:-0.550755 6:-0.963597 
1 1:0.929788 2:0.709799 3:0.443444 4:-0.0157894 5:-0.997253 6:-0.868736 
1 1:0.760042 2:0.960215 3:0.933947 4:-0.846099 5:-0.916287 6:-0.759324 
1 1:0.737828 2:0.793559 3:0.916133 4:-0.740494 5:-0.606689 6:-0.808433 
1 1:0.802525 2:0.950668 3:0.969359 4:-0.445164 5:-0.762464 6:-0.861862 
1 1:0.76277 2:0.939907 3:0.340229 4:-0.405537 5:-0.996181 6:-0.955147 
1 1:0.761554 2:0.743752 3:0.861111 4:-0.780513 5:-0.909684 6:-0.959827 
1 1:0.715606 2:0.550735 3:0.980256 4:-0.952973 5:-0.834562 6:-0.669076 
1 1:0.9219 2:0.99175 3:0.730681 4:-0.975951 5:-0.899974 6:-0.705726 
1 1:0.993485 2:0.99691 3:0.42112 4:-0.804058 5:-0.715665 6:-0.894486 
1 1:0.873294 2:0.956469 3:0.010064 4:-0.355437 5:-0.717244 6:-0.746203 
1 1:0.93359 2:0.94701 3:0.717471 4:-0.829883 5:-0.772005 6:-0.717578 
1 1:0.912794 2:0.971244 3:0.621554 4:-0.978342 5:-0.835224 6:-0.675132 
1 1:0.807781 2:0.517621 3:1 4:-0.743196 5:-0.760943 6:-0.979158 
1 1:0.777917 2:0.765906 3:0.700026 4:-0.897867 5:-0.885015 6:-1 
1 1:0.804063 2:0.682882 3:0.406013 4:-0.981107 5:-0.732456 6:-0.929699 
1 1:0.751413 2:0.732674 3:0.317887 4:-0.979097 5:-0.825211 6:-0.83828 
1 1:0.856178 2:0.949884 3:0.132505 4:-0.106771 5:-0.73384 6:-0.780878 
1 1:0.779832 2:0.991522 3:0.115021 4:-0.483425 5:-0.931025 6:-0.752283 
1 1:0.840627 2:0.982958 3:0.427279 4:-0.384101 5:-0.877518 6:-0.961623 
1 1:0.988194 2:0.883963 3:0.19718 4:-0.515275 5:-0.877867 6:-0.842809 
1 1:0.793184 2:0.699782 3:0.129397 4:-0.489293 5:-0.999701 6:-0.998623 
1 1:0.709204 2:0.963214 3:0.525292 4:-0.887777 5:-0.594622 6:-0.815401 
0.7759619350849974 1:0.846267 2:0.750276 3:0.183207 4:-0.0141781 5:-0.624226 6:-0.812642 
1 1:0.89795 2:0.919055 3:0.806397 4:-0.642122 5:-0.548225 6:-0.847261 
1 1:0.972449 2:0.585546 3:0.399235 4:-0.0556652 5:-0.904012 6:-0.80399 
1 1:0.976372 2:0.786836 3:0.515081 4:-0.808983 5:-0.879472 6:-0.929161 
0.1020747741171427 1:0.912185 2:0.78894 3:0.783617 4:-0.430469 5:-0.830617 6:-0.9564 
1 1:-0.976626 2:-0.974265 3:-0.723827 4:0.279265 5:0.635861 6:0.717403 
1 1:-0.903302 2:-0.859055 3:-0.322409 4:0.853475 5:0.960197 6:0.97822 
1 1:-0.767361 2:-0.924842 3:-0.86683 4:0.637105 5:0.909238 6:0.726771 
1 1:-0.89554 2:-0.981609 3:-0.0533593 4:0.742733 5:0.934514 6:0.714766 
1 1:-0.96696 2:-0.53395 3:-0.863413 4:0.721965 5:0.540734 6:0.748062 
1 1:-0.967018 2:-0.786616 3:-0.10407 4:0.00945531 5:0.647176 6:0.76594 
1 1:-0.760764 2:-0.734425 3:-0.115981 4:0.98068 5:0.903544 6:0.821364 
1 1:-0.966266 2:-0.844209 3:-0.580011 4:0.645049 5:0.977396 6:0.708669 
1 1:-0.957247 2:-0.908091 3:-0.745 4:0.139213 5:0.71616 6:0.960419 
1 1:-0.973176 2:-0.694371 3:-0.616861 4:0.1373 5:0.868934 6:0.785644 
1 1:-0.772161 2:-0.810036 3:-0.0370299 4:0.96927 5:0.630109 6:0.842849 
1 1:-0.776988 2:-0.682103 3:-0.00469751 4:0.782678 5:0.794711 6:0.760016 
1 1:-0.878226 2:-0.785311 3:-0.381454 4:0.885147 5:0.70897 6:0.875387 
1 1:-0.935806 2:-0.897861 3:-0.773284 4:0.733668 5:0.896385 6:0.85298 
1 1:-0.88214 2:-0.600899 3:-0.919165 4:0.385825 5:0.800091 6:0.941149 
0.476962715514416 1:-0.768775 2:-0.787621 3:-0.0739266 4:0.684164 5:0.514102 6:0.958534 
1 1:-0.906239 2:-0.612802 3:-0.424758 4:0.0495523 5:0.927017 6:0.751927 
1 1:-0.927953 2:-0.941492 3:-0.629113 4:0.0468608 5:0.75759 6:0.825645 
1 1:-0.798293 2:-0.691619 3:-0.0190826 4:0.754871 5:0.710108 6:0.984607 
1 1:-0.720506 2:-0.916691 3:-0.244325 4:0.724325 5:0.867591 6:0.924244 
1 1:-0.924106 2:-0.572348 3:-0.323205 4:0.0545476 5:0.89401 6:0.848642 
1 1:-0.881738 2:-0.996848 3:-0.362444 4:0.213276 5:0.802274 6:0.911393 
1 1:-0.916631 2:-0.800674 3:-0.119479 4:0.886565 5:0.864322 6:0.905362 
1 1:-0.799365 2:-1 3:-0.840528 4:0.935595 5:0.958752 6:0.884976 
1 1:-0.748049 2:-0.602569 3:-0.493249 4:0.845883 5:0.805244 6:0.966392 
1 1:-0.89708 2:-0.964058 3:-0.84027 4:0.813313 5:0.689472 6:0.905693 
1 1:-0.753755 2:-0.91838 3:-0.920401 4:1 5:0.917416 6:0.889259 
1 1:-0.952352 2:-0.965658 3:-0.641594 4:0.978653 5:0.532695 6:0.979244 
1 1:-0.667923 2:-0.993337 3:-0.39394 4:0.891837 5:0.821115 6:0.97128 
0.4298385162298158 1:-0.935697 2:-0.507401 3:-0.191398 4:0.194324 5:0.877288 6:0.852996 
1 1:-0.74642 2:-0.855241 3:-0.935657 4:0.658518 5:0.955378 6:0.738622 
1 1:-0.680401 2:-0.903504 3:-0.00449468 4:0.384935 5:0.999112 6:0.67141 
1 1:-0.99115 2:-0.982259 3:-0.269283 4:0.863975 5:0.724744 6:0.728964 
1 1:-0.743159 2:-0.770851 3:-0.972298 4:0.765937 5:0.788834 6:0.700395 
1 1:-0.995153 2:-0.976739 3:-0.135862 4:0.310344 5:0.796039 6:0.992154 
1 1:-0.8159 2:-0.931285 3:-0.995587 4:0.47074 5:0.784753 6:0.805532 
1 1:-0.777448 2:-0.912856 3:-0.821077 4:0.0792094 5:0.825744 6:0.90041 
1 1:-0.989753 2:-0.831575 3:-0.818702 4:0.0466071 5:0.779223 6:0.920501 
1 1:-0.696083 2:-0.941899 3:-0.541131 4:0.970121 5:0.559209 6:0.848936 
1 1:-0.933441 2:-0.950993 3:-0.317154 4:0.970293 5:0.513123 6:0.759095 
1 1:-0.968116 2:-0.893019 3:-0.739913 4:0.371795 5:0.962846 6:0.800085 
1 1:-1 2:-0.692399 3:-0.120714 4:0.431471 5:0.77802 6:0.973749 
1 1:-0.757422 2:-0.988526 3:-0.58145 4:0.937054 5:0.936575 6:0.710958 
1 1:-0.689089 2:-0.727921 3:-0.283758 4:0.0100763 5:0.847156 6:0.998645 
1 1:-0.954554 2:-0.912419 3:-0.875755 4:0.966169 5:0.906833 6:0.918194 
1 1:-0.765399 2:-0.897696 3:-0.145835 4:0.00878992 5:0.798082 6:0.738612 
1 1:-0.772045 2:-0.982722 3:-0.640684 4:0.15508 5:0.545648 6:1 
1 1:-0.878086 2:-0.638227 3:-0.937135 4:0.238124 5:0.584626 6:0.717719 
1 1:-0.671023 2:-0.834037 3:-0.688506 4:0.921363 5:0.707882 6:0.956494 
1 1:-0.960195 2:-0.951847 3:-0.875832 4:0.847295 5:0.737598 6:0.856319 
1 1:-0.896813 2:-0.729415 3:-1 4:0.121279 5:0.986283 6:0.697292 
