svm_type c_svc
kernel_type rbf
gamma 0.333333
nr_class 2
total_sv 4
rho 0.0119897
label 1 -1
nr_sv 2 2
SV
0.1031189243312902 1:0.86766 2:0.831525 3:0.86357 
1 1:0.85312 2:0.846339 3:0.839053 
-0.1594947639481767 1:-1 2:-0.968381 3:-0.992488 
-0.9436241603831136 1:-0.712053 2:-0.679752 3:-0.694748 
