svm_type one_class
kernel_type rbf
gamma 0.333333
nr_class 2
total_sv 52
rho 25.7407
SV
1 1:0.889549 2:0.989827 3:0.925462 
1 1:0.962253 2:0.992601 3:0.90288 
0.9989528908609827 1:0.924007 2:0.954927 3:0.861841 
1 1:0.838 2:0.954518 3:0.953621 
1 1:0.897647 2:0.989483 3:0.94848 
1 1:0.857766 2:0.982823 3:0.918309 
1 1:0.98137 2:0.839831 3:0.93861 
1 1:0.871784 2:0.956216 3:0.953297 
1 1:0.832345 2:0.96282 3:0.984774 
1 1:0.972288 2:0.939756 3:0.981599 
1 1:0.918732 2:0.903729 3:0.998023 
1 1:0.973228 2:0.906897 3:0.985206 
1 1:0.93533 2:0.979906 3:0.967207 
1 1:0.850809 2:0.849387 3:0.996751 
1 1:0.992164 2:0.856989 3:0.874182 
1 1:0.985515 2:0.836986 3:0.862484 
1 1:0.978568 2:0.938871 3:0.843985 
1 1:0.966152 2:0.842179 3:0.970045 
1 1:0.956369 2:0.843945 3:0.958719 
1 1:0.87324 2:0.993386 3:1 
0.8381984521765987 1:0.855266 2:0.907168 3:0.982042 
1 1:1 2:0.938275 3:0.990157 
1 1:0.941085 2:0.909335 3:0.957691 
1 1:0.854486 2:0.97884 3:0.969764 
1 1:0.974433 2:1 3:0.886113 
1 1:-0.880695 2:-0.740126 3:-0.97504 
1 1:-0.688784 2:-0.692854 3:-0.951245 
1 1:-0.952954 2:-0.946246 3:-0.696767 
1 1:-0.959249 2:-0.764981 3:-0.721212 
1 1:-0.978918 2:-0.775444 3:-0.701697 
1 1:-0.701803 2:-0.772736 3:-0.974539 
1 1:-0.968208 2:-0.948273 3:-0.940293 
0.1807009574967657 1:-0.91527 2:-0.867806 3:-0.907338 
1 1:-0.766159 2:-0.788679 3:-0.997352 
1 1:-0.88185 2:-0.899557 3:-0.926078 
1 1:-0.949843 2:-0.926432 3:-0.888921 
1 1:-0.740387 2:-0.997984 3:-0.887924 
1 1:-0.977549 2:-0.889251 3:-0.743421 
1 1:-0.996531 2:-0.851835 3:-0.904713 
1 1:-0.870572 2:-0.788966 3:-1 
1 1:-0.958012 2:-0.878417 3:-0.918442 
1 1:-0.958443 2:-1 3:-0.986175 
1 1:-0.683906 2:-0.871261 3:-0.918346 
1 1:-0.722749 2:-0.951791 3:-0.723171 
1 1:-0.989204 2:-0.981041 3:-0.899638 
1 1:-1 2:-0.968381 3:-0.992488 
0.1699732862958194 1:-0.922579 2:-0.708752 3:-0.748989 
1 1:-0.776388 2:-0.821242 3:-0.971178 
0.8121744131698336 1:-0.67399 2:-0.850695 3:-0.66213 
1 1:-0.961695 2:-0.947049 3:-0.978181 
1 1:-0.908502 2:-0.968686 3:-0.746846 
1 1:-0.767225 2:-0.986073 3:-0.873399 
